tree
version=v4
num_class=1
num_tree_per_iteration=1
label_index=0
max_feature_idx=9
objective=binary sigmoid:1
feature_names=amount transaction_type merchant_category location device_used time_since_last_transaction spending_deviation_score velocity_score geo_anomaly_score payment_channel
feature_infos=[10.01:4999.9300000000003] -1:0:1 -1:5:1:2:0:3:4 -1:13:18:3:15:10:4:17:11:8:0:6:1:16:19:2:5:7:14:12:9 -1:1:0 [1:172782] [0.10000000000000001:15] [0.10000000000000001:10] [0:1] -1:0:1
tree_sizes=1317 1017 604 706 911 1026 1035 819 498 493 495 933 921 1035 808 817 600 816 817 810 494 602 919 1035 599 820 819 1033 710 819 709 496 495 599 1036 1129 605 604 923 816 496 607 708 708 707 497 604 1141 1036 1035 823 1036 708 713 821 921 498 387 712 710 1030 710 497 1126 1127 921 1037 916 494 494 704 602 818 493 928 1252 1145 1135 1911 600 606 815 494 2010 494 819 604 1347 818 711 1136 712 495 604 1040 823 498 1471 495 603

Tree=0
num_leaves=11
num_cat=1
split_feature=1 0 0 5 0 0 7 0 5 5
split_gain=40000 3.63798e-12 3.63798e-12 3.63798e-12 2.27374e-13 2.27374e-13 2.27374e-13 1.13687e-13 5.68434e-14 5.68434e-14
threshold=0 275.38500000000005 4699.6450000000013 112.50000000000001 291.73500000000007 4767.6950000000006 6.1750000000000007 298.79500000000007 96.500000000000014 158811.00000000003
decision_type=1 2 2 2 2 2 2 2 2 2
left_child=1 -1 3 -2 -3 8 -7 9 -4 -6
right_child=2 4 5 -5 7 6 -8 -9 -10 -11
leaf_value=-0.10104503269112337 0.098955032874005436 -0.10104503269112337 0.098955032874005436 0.098955032874005436 -0.10104503269112337 0.098955032874005436 0.098955032874005436 -0.10104503269112337 0.098955032874005436 -0.10104503269112337
leaf_weight=4587.2486328929663 4375.7486959248781 274.99991804361343 61.749981597065926 270.74991931021214 109.99996721744537 12.749996200203894 259.99992251396179 22.499993294477463 16.249995157122612 7.9999976158142081
leaf_count=18349 17503 1100 247 1083 440 51 1040 90 65 32
internal_value=-0.0011 -0.101045 0.098955 0.098955 -0.101045 0.098955 0.098955 -0.101045 0.098955 -0.101045
internal_weight=10000 5002.75 4997.25 4646.5 415.5 350.75 272.75 140.5 78 118
internal_count=40000 20011 19989 18586 1662 1403 1091 562 312 472
cat_boundaries=0 1
cat_threshold=1
is_linear=0
shrinkage=1


Tree=1
num_leaves=8
num_cat=1
split_feature=1 0 0 6 0 7 7
split_gain=36193.5 3.63798e-12 3.63798e-12 3.63798e-12 5.68434e-14 2.84217e-14 1.42109e-14
threshold=0 298.79500000000007 4928.3000000000002 14.925000000000002 4966.2200000000003 9.4450000000000021 8.6350000000000033
decision_type=1 2 2 2 2 2 2
left_child=1 -1 3 -2 -4 6 -5
right_child=2 -3 4 5 -6 -7 -8
leaf_value=-0.095194611838502155 0.095289172962197188 -0.095194611838502155 0.095289172962197188 0.095289172962197188 0.095289172962197188 0.095289172962197188 0.095289172962197188
leaf_weight=4967.55953527987 4869.8188621401787 22.442666441202164 38.904682874679565 23.442565321922302 38.655293881893158 4.9877798557281485 9.2273927330970746
leaf_count=19921 19527 90 156 94 155 20 37
internal_value=-1.31335e-07 -0.0951946 0.0952892 0.0952892 0.0952892 0.0952892 0.0952892
internal_weight=9975.04 4990 4985.04 4907.48 77.56 37.6577 32.67
internal_count=40000 20011 19989 19678 311 151 131
cat_boundaries=0 1
cat_threshold=1
is_linear=0
shrinkage=0.05


Tree=2
num_leaves=4
num_cat=1
split_feature=1 0 6
split_gain=32905.4 3.63798e-12 3.63798e-12
threshold=0 4668.2100000000009 1.4850000000000001
decision_type=1 2 2
left_child=2 -2 -1
right_child=1 -3 -4
leaf_value=-0.091090764942596394 0.091172844011393306 0.091172844011393306 -0.091090764942596394
leaf_weight=4905.1240450143814 4564.3105645477772 386.09659089148045 49.769305050373077
leaf_count=19810 18430 1559 201
internal_value=-2.34833e-07 0.0911728 -0.0910908
internal_weight=9905.3 4950.41 4954.89
internal_count=40000 19989 20011
cat_boundaries=0 1
cat_threshold=1
is_linear=0
shrinkage=0.05


Tree=3
num_leaves=5
num_cat=1
split_feature=1 0 0 5
split_gain=30039.3 3.63798e-12 3.63798e-12 2.84217e-14
threshold=0 216.56000000000003 4928.3000000000002 106.50000000000001
decision_type=1 2 2 2
left_child=1 -1 -2 -4
right_child=2 -3 3 -5
leaf_value=-0.087513191599552898 0.087585031303295688 -0.087513191599552898 0.087585031303295688 0.087585031303295688
leaf_weight=3490.2160450667143 4820.6555950045586 1410.683069229126 68.103580415248871 8.0842379629611951
leaf_count=14251 19678 5760 278 33
internal_value=-3.20436e-07 -0.0875132 0.087585 0.087585
internal_weight=9797.74 4900.9 4896.84 76.1878
internal_count=40000 20011 19989 311
cat_boundaries=0 1
cat_threshold=1
is_linear=0
shrinkage=0.05


Tree=4
num_leaves=7
num_cat=1
split_feature=1 0 0 0 5 0
split_gain=27521.2 1.81899e-12 1.81899e-12 2.27374e-13 5.68434e-14 3.55271e-15
threshold=0 287.20500000000004 4498.380000000001 4928.3000000000002 103.50000000000001 4966.2200000000003
decision_type=1 2 2 2 2 2
left_child=1 -1 -2 -4 -5 -6
right_child=2 -3 3 4 5 -7
leaf_value=-0.08436984053553348 0.0844331899995866 -0.08436984053553348 0.0844331899995866 0.0844331899995866 0.084433189999586614 0.084433189999586586
leaf_weight=4619.3282993137836 4262.5116482377052 211.7252492159605 489.76621091365814 65.205560624599457 5.0715436041355115 4.8300415277481079
leaf_count=19134 17650 877 2028 270 21 20
internal_value=-3.83311e-07 -0.0843698 0.0844332 0.0844332 0.0844332 0.0844332
internal_weight=9658.44 4831.05 4827.39 564.873 75.1071 9.90159
internal_count=40000 20011 19989 2339 311 41
cat_boundaries=0 1
cat_threshold=1
is_linear=0
shrinkage=0.05


Tree=5
num_leaves=8
num_cat=1
split_feature=1 0 0 0 5 5 5
split_gain=25293.7 1.81899e-12 1.81899e-12 1.81899e-12 5.68434e-14 2.84217e-14 2.84217e-14
threshold=0 296.68000000000006 294.0750000000001 4868.8800000000001 114.50000000000001 145274.00000000003 148801.50000000003
decision_type=1 2 2 2 2 2 2
left_child=1 2 -1 -2 -5 -3 -4
right_child=3 5 6 4 -6 -7 -8
leaf_value=-0.081589019247479549 0.081645239164696237 -0.081589019247479549 -0.081589019247479549 0.081645239164696237 0.081645239164696237 -0.081589019247479549 -0.081589019247479549
leaf_weight=4651.9144042730331 4596.8104447424412 51.250306606292725 30.845091938972473 142.65636049211025 5.2220298349857321 7.3553680777549735 6.6435582637786856
leaf_count=19606 19366 216 130 601 22 31 28
internal_value=-4.34112e-07 -0.081589 -0.081589 0.0816452 0.0816452 -0.081589 -0.081589
internal_weight=9492.7 4748.01 4689.4 4744.69 147.878 58.6057 37.4887
internal_count=40000 20011 19764 19989 623 247 158
cat_boundaries=0 1
cat_threshold=1
is_linear=0
shrinkage=0.05


Tree=6
num_leaves=8
num_cat=1
split_feature=1 0 0 6 6 5 6
split_gain=23311.3 1.81899e-12 1.81899e-12 1.81899e-12 2.27374e-13 1.13687e-13 1.42109e-14
threshold=0 280.11000000000007 4833.0900000000011 14.175000000000002 14.335000000000003 27548.000000000004 0.40500000000000008
decision_type=1 2 2 2 2 2 2
left_child=1 -1 3 -2 -5 6 -3
right_child=2 5 -4 4 -6 -7 -8
leaf_value=-0.079114037430208561 0.079164213365418692 -0.079114037430208561 0.079164213365418692 0.079164213365418692 0.079164213365418692 -0.079114037430208561 -0.079114037430208561
leaf_weight=4340.5705729722977 4083.5663035511971 8.6053212881088239 181.25915387272835 77.948416620492935 308.30343887209892 271.64906120300293 33.258403897285461
leaf_count=18663 17550 37 779 335 1325 1168 143
internal_value=-4.78048e-07 -0.079114 0.0791642 0.0791642 0.0791642 -0.079114 -0.079114
internal_weight=9305.16 4654.08 4651.08 4469.82 386.252 313.513 41.8637
internal_count=40000 20011 19989 19210 1660 1348 180
cat_boundaries=0 1
cat_threshold=1
is_linear=0
shrinkage=0.05


Tree=7
num_leaves=6
num_cat=1
split_feature=1 0 0 5 5
split_gain=21537.6 1.81899e-12 1.13687e-13 1.13687e-13 7.10543e-15
threshold=0 272.85000000000008 298.79500000000007 59310.500000000007 44957.000000000007
decision_type=1 2 2 2 2
left_child=1 -1 3 -3 -4
right_child=-2 2 4 -5 -6
leaf_value=-0.076899468173414753 0.076944475585728256 -0.076899468173414753 -0.076899468173414712 -0.076899468173414753 -0.076899468173414753
leaf_weight=4137.5900988578796 4548.5809453725815 134.64453268051147 6.3683224916458157 258.59938117861748 14.101285517215727
leaf_count=18192 19989 592 28 1137 62
internal_value=-5.11262e-07 -0.0768995 -0.0768995 -0.0768995 -0.0768995
internal_weight=9099.88 4551.3 413.714 393.244 20.4696
internal_count=40000 20011 1819 1729 90
cat_boundaries=0 1
cat_threshold=1
is_linear=0
shrinkage=0.05


Tree=8
num_leaves=3
num_cat=1
split_feature=1 8
split_gain=19943 1.81899e-12
threshold=0 1.0000000180025095e-35
decision_type=1 2
left_child=1 -1
right_child=-2 -3
leaf_value=-0.074908447976174256 0.074948996572483786 -0.074908447976174256
leaf_weight=216.17926567792892 4438.9734846353531 4225.2614791691303
leaf_count=974 19989 19037
internal_value=-5.43273e-07 -0.0749084
internal_weight=8880.41 4441.44
internal_count=40000 20011
cat_boundaries=0 1
cat_threshold=1
is_linear=0
shrinkage=0.05


Tree=9
num_leaves=3
num_cat=1
split_feature=1 0
split_gain=18503.3 1.81899e-12
threshold=0 4833.0900000000011
decision_type=1 2
left_child=-1 -2
right_child=1 -3
leaf_value=-0.073110768000661713 0.073147454864231895 0.073147454864231895
leaf_weight=4326.0393410921097 4155.2981047332287 168.50480081140995
leaf_count=20011 19210 779
internal_value=-5.64259e-07 0.0731475
internal_weight=8649.84 4323.8
internal_count=40000 19989
cat_boundaries=0 1
cat_threshold=1
is_linear=0
shrinkage=0.05


Tree=10
num_leaves=3
num_cat=1
split_feature=1 0
split_gain=17198.4 1.81899e-12
threshold=0 287.20500000000004
decision_type=1 2
left_child=1 -1
right_child=-2 -3
leaf_value=-0.071481405368627876 0.071514721210781187 -0.071481405368627876
leaf_weight=4022.0950427949429 4204.4179150611162 184.351277962327
leaf_count=19134 19989 877
internal_value=-5.84906e-07 -0.0714814
internal_weight=8410.86 4206.45
internal_count=40000 20011
cat_boundaries=0 1
cat_threshold=1
is_linear=0
shrinkage=0.05


Tree=11
num_leaves=7
num_cat=1
split_feature=1 0 0 0 0 5
split_gain=16011.7 1.81899e-12 9.09495e-13 4.54747e-13 1.13687e-13 1.42109e-14
threshold=0 3810.6850000000004 139.09500000000003 104.18000000000002 108.66500000000001 158811.00000000003
decision_type=1 2 2 2 2 2
left_child=2 -2 3 -1 5 -5
right_child=1 -3 -4 4 -6 -7
leaf_value=-0.069999485233691136 0.070029831957269889 0.070029831957269889 -0.069999485233691136 -0.069999485233691136 -0.069999485233691136 -0.069999485233691136
leaf_weight=1323.6588241159916 2932.0749684870243 1149.9174082428217 2275.0768688321114 59.795256778597832 420.40351182222366 4.8979049921035758
leaf_count=6486 14358 5631 11148 293 2060 24
internal_value=-6.02909e-07 0.0700298 -0.0699995 -0.0699995 -0.0699995 -0.0699995
internal_weight=8165.82 4081.99 4083.83 1808.76 485.097 64.6932
internal_count=40000 19989 20011 8863 2377 317
cat_boundaries=0 1
cat_threshold=1
is_linear=0
shrinkage=0.05


Tree=12
num_leaves=7
num_cat=1
split_feature=1 0 0 0 5 5
split_gain=14929 9.09495e-13 9.09495e-13 2.27374e-13 5.68434e-14 7.10543e-15
threshold=0 298.79500000000007 4372.6850000000004 4833.0900000000011 110.50000000000001 42701.500000000007
decision_type=1 2 2 2 2 2
left_child=1 -1 -2 -4 -5 -3
right_child=2 5 3 4 -6 -7
leaf_value=-0.068647401558743923 0.068675130518501992 -0.068647401558743867 0.068675130518501992 0.068675130518501992 0.068675130518501992 -0.068647401558743923
leaf_weight=3941.4070322215557 3370.7132868468761 5.3420003950595882 432.59962007403374 143.73790580034256 10.493263095617293 12.464667588472365
leaf_count=19921 17025 27 2185 726 53 63
internal_value=-6.16009e-07 -0.0686474 0.0686751 0.0686751 0.0686751 -0.0686474
internal_weight=7916.76 3959.21 3957.54 586.831 154.231 17.8067
internal_count=40000 20011 19989 2964 779 90
cat_boundaries=0 1
cat_threshold=1
is_linear=0
shrinkage=0.05


Tree=13
num_leaves=8
num_cat=1
split_feature=1 0 0 5 0 0 5
split_gain=13938.4 9.09495e-13 9.09495e-13 9.09495e-13 2.27374e-13 2.84217e-14 3.55271e-15
threshold=0 250.79500000000004 4868.8800000000001 49.500000000000007 298.79500000000007 4966.2200000000003 113692.00000000001
decision_type=1 2 2 2 2 2 2
left_child=1 -1 3 -2 -3 -4 -6
right_child=2 4 5 -5 6 -7 -8
leaf_value=-0.067410256707435709 0.067435663905864127 -0.067410256707435709 0.067435663905864127 0.067435663905864127 -0.067410256707435681 0.067435663905864127 -0.067410256707435709
leaf_weight=3183.6706081181765 1536.1171473115683 632.55793657898903 89.717062890529633 2176.4055875986814 12.451927885413172 29.713984504342079 4.7892030328512183
leaf_count=16619 8013 3302 468 11353 65 155 25
internal_value=-6.29782e-07 -0.0674103 0.0674357 0.0674357 -0.0674103 0.0674357 -0.0674103
internal_weight=7665.42 3833.47 3831.95 3712.52 649.799 119.431 17.2411
internal_count=40000 20011 19989 19366 3392 623 90
cat_boundaries=0 1
cat_threshold=1
is_linear=0
shrinkage=0.05


Tree=14
num_leaves=6
num_cat=1
split_feature=1 6 0 0 0
split_gain=13029.6 1.81899e-12 9.09495e-13 5.68434e-14 1.42109e-14
threshold=0 1.405 4630.9300000000012 250.79500000000004 289.20500000000004
decision_type=1 2 2 2 2
left_child=1 -1 -2 -3 -5
right_child=2 3 -4 4 -6
leaf_value=-0.066275311387259922 0.066298647313377687 -0.066275311387259922 0.066298647313377687 -0.066275311387259922 -0.066275311387259922
leaf_weight=3459.1015422493219 3388.0188285708427 204.1631353199482 317.96280458569527 34.830008566379547 9.2633001506328565
leaf_count=18671 18274 1102 1715 188 50
internal_value=-6.3881e-07 -0.0662753 0.0662986 -0.0662753 -0.0662753
internal_weight=7413.34 3707.36 3705.98 248.256 44.0933
internal_count=40000 20011 19989 1340 238
cat_boundaries=0 1
cat_threshold=1
is_linear=0
shrinkage=0.05


Tree=15
num_leaves=6
num_cat=1
split_feature=1 0 0 0 5
split_gain=12193.9 1.81899e-12 9.09495e-13 1.13687e-13 1.42109e-14
threshold=0 4597.0800000000008 31.085000000000004 4928.3000000000002 105.50000000000001
decision_type=1 2 2 2 2
left_child=2 -2 -1 -3 -5
right_child=1 3 -4 4 -6
leaf_value=-0.065231629863785043 0.065253109016793459 0.065253109016793459 -0.065231629863785043 0.065253109016793459 0.065253109016793459
leaf_weight=255.22274994850159 3245.1607061028481 279.41553711891174 3326.3077193498611 49.076831519603729 6.6271633803844443
leaf_count=1426 18118 1560 18585 274 37
internal_value=-6.49728e-07 0.0652531 -0.0652316 0.0652531 0.0652531
internal_weight=7161.81 3580.28 3581.53 335.12 55.704
internal_count=40000 19989 20011 1871 311
cat_boundaries=0 1
cat_threshold=1
is_linear=0
shrinkage=0.05


Tree=16
num_leaves=4
num_cat=1
split_feature=1 0 5
split_gain=11423.7 9.09495e-13 1.42109e-14
threshold=0 4928.3000000000002 109.50000000000001
decision_type=1 2 2
left_child=-1 -2 -3
right_child=1 2 -4
leaf_value=-0.064269759124074996 0.064289574239854416 0.064289574239854416 0.064289574239854416
leaf_weight=3456.5435418486595 3401.6463326215744 49.439518809318542 4.3216362595558158
leaf_count=20011 19678 286 25
internal_value=-6.57503e-07 0.0642896 0.0642896
internal_weight=6911.95 3455.41 53.7612
internal_count=40000 19989 311
cat_boundaries=0 1
cat_threshold=1
is_linear=0
shrinkage=0.05


Tree=17
num_leaves=6
num_cat=1
split_feature=1 0 0 0 5
split_gain=10712.5 9.09495e-13 9.09495e-13 5.68434e-14 1.42109e-14
threshold=0 296.68000000000006 4699.6450000000013 4767.6950000000006 112.50000000000001
decision_type=1 2 2 2 2
left_child=1 -1 -2 4 -4
right_child=2 -3 3 -5 -6
leaf_value=-0.063381491279946245 0.063399812300150973 -0.063381491279946245 0.063399812300150973 0.063399812300150973 0.063399812300150973
leaf_weight=3291.732103228569 3097.9805467128754 41.138323694467545 48.504914402961731 181.85175812244415 3.5003546476364127
leaf_count=19764 18586 247 291 1091 21
internal_value=-6.6336e-07 -0.0633815 0.0633998 0.0633998 0.0633998
internal_weight=6664.71 3332.87 3331.84 233.857 52.0053
internal_count=40000 20011 19989 1403 312
cat_boundaries=0 1
cat_threshold=1
is_linear=0
shrinkage=0.05


Tree=18
num_leaves=6
num_cat=1
split_feature=1 0 7 5 5
split_gain=10054.5 9.09495e-13 9.09495e-13 2.84217e-14 7.10543e-15
threshold=0 289.20500000000004 6.5650000000000004 141228.50000000003 152433.00000000003
decision_type=1 2 2 2 2
left_child=1 -1 -2 -3 -5
right_child=2 3 -4 4 -6
leaf_value=-0.062559670434120029 0.062576636821083512 -0.062559670434120029 0.062576636821083512 -0.062559670434120002 -0.062559670434120029
leaf_weight=3095.5416211485863 465.70199131965637 94.669788330793381 2744.269424021244 7.060119807720187 13.638867810368536
leaf_count=19292 2900 590 17089 44 85
internal_value=-6.66695e-07 -0.0625597 0.0625766 -0.0625597 -0.0625597
internal_weight=6420.88 3210.91 3209.97 115.369 20.699
internal_count=40000 20011 19989 719 129
cat_boundaries=0 1
cat_threshold=1
is_linear=0
shrinkage=0.05


Tree=19
num_leaves=6
num_cat=1
split_feature=1 0 0 0 5
split_gain=9444.7 9.09495e-13 9.09495e-13 2.84217e-14 1.42109e-14
threshold=0 21.985000000000003 4928.3000000000002 19.505000000000006 111.50000000000001
decision_type=1 2 2 2 2
left_child=1 3 -2 -1 -4
right_child=2 -3 4 -5 -6
leaf_value=-0.061798016528511038 0.061813750589425544 -0.061798016528511038 0.061813750589425544 -0.061798016528511038 0.061813750589425544
leaf_weight=97.776310309767723 3042.0656267404556 2968.6617817431688 44.98633486032486 24.55992628633976 3.0918443202972403
leaf_count=633 19678 19219 291 159 20
internal_value=-6.74329e-07 -0.061798 0.0618138 -0.061798 0.0618138
internal_weight=6181.14 3091 3090.14 122.336 48.0782
internal_count=40000 20011 19989 792 311
cat_boundaries=0 1
cat_threshold=1
is_linear=0
shrinkage=0.05


Tree=20
num_leaves=3
num_cat=1
split_feature=1 0
split_gain=8878.64 9.09495e-13
threshold=0 4966.2200000000003
decision_type=1 2
left_child=-1 -2
right_child=1 -3
leaf_value=-0.061090989573816749 0.061105611217485069 0.061105611217485069
leaf_weight=2973.410604685545 2949.5826586186886 23.050585463643074
leaf_count=20011 19834 155
internal_value=-6.76911e-07 0.0611056
internal_weight=5946.04 2972.63
internal_count=40000 19989
cat_boundaries=0 1
cat_threshold=1
is_linear=0
shrinkage=0.05


Tree=21
num_leaves=4
num_cat=1
split_feature=1 0 0
split_gain=8352.41 9.09495e-13 5.68434e-14
threshold=0 4630.9300000000012 4966.2200000000003
decision_type=1 2 2
left_child=-1 -2 -3
right_child=1 2 -4
leaf_value=-0.060433715681940094 0.060447312064663632 0.060447312064663632 0.060447312064663632
leaf_weight=2858.3747783601284 2612.4877472519875 223.02073359489441 22.159111350774765
leaf_count=20011 18274 1560 155
internal_value=-6.79482e-07 0.0604473 0.0604473
internal_weight=5716.04 2857.67 245.18
internal_count=40000 19989 1715
cat_boundaries=0 1
cat_threshold=1
is_linear=0
shrinkage=0.05


Tree=22
num_leaves=7
num_cat=1
split_feature=1 0 0 0 5 7
split_gain=7862.54 9.09495e-13 4.54747e-13 5.68434e-14 1.42109e-14 3.55271e-15
threshold=0 4897.3750000000009 4498.380000000001 4868.8800000000001 106.50000000000001 9.1150000000000002
decision_type=1 2 2 2 2 2
left_child=-1 2 -2 -4 -3 -5
right_child=1 4 3 5 -6 -7
leaf_value=-0.059821842849167944 0.059834508346459161 0.059834508346459161 0.059834508346459161 0.059834508346459141 0.059834508346459161 0.059834508346459161
leaf_weight=2746.0736262649298 2424.1747751832008 58.784521460533142 235.68747389316559 15.932253479957582 5.3565334975719443 5.4938805103301993
leaf_count=20011 17650 428 1716 116 39 40
internal_value=-6.85477e-07 0.0598345 0.0598345 0.0598345 0.0598345 0.0598345
internal_weight=5491.5 2745.43 2681.29 257.114 64.1411 21.4261
internal_count=40000 19989 19522 1872 467 156
cat_boundaries=0 1
cat_threshold=1
is_linear=0
shrinkage=0.05


Tree=23
num_leaves=8
num_cat=1
split_feature=1 0 0 6 6 0 6
split_gain=7405.93 4.54747e-13 4.54747e-13 4.54747e-13 2.84217e-14 1.42109e-14 7.10543e-15
threshold=0 291.73500000000007 97.225000000000009 14.385000000000003 14.875000000000002 296.68000000000006 14.965000000000002
decision_type=1 2 2 2 2 2 2
left_child=1 2 -1 -2 -5 -3 -6
right_child=3 5 -4 4 6 -7 -8
leaf_value=-0.059251512168597469 0.059263330180801647 -0.059251512168597469 -0.059251512168597469 0.059263330180801647 0.059263330180801647 -0.059251512168597469 0.059263330180801627
leaf_weight=792.00972539186478 2467.2629128396511 41.504419147968292 1770.5916968584061 137.01887682080269 22.418873012065887 32.544735014438629 9.3631763756275195
leaf_count=6011 18709 315 13438 1039 170 247 71
internal_value=-6.85044e-07 -0.0592515 -0.0592515 0.0592633 0.0592633 -0.0592515 0.0592633
internal_weight=5272.71 2636.65 2562.6 2636.06 168.801 74.0492 31.782
internal_count=40000 20011 19449 19989 1280 562 241
cat_boundaries=0 1
cat_threshold=1
is_linear=0
shrinkage=0.05


Tree=24
num_leaves=4
num_cat=1
split_feature=1 0 5
split_gain=6979.82 9.09495e-13 7.10543e-15
threshold=0 4928.3000000000002 12.500000000000002
decision_type=1 2 2
left_child=-1 -2 -3
right_child=1 2 -4
leaf_value=-0.058719267102077012 0.058730296567486642 0.058730296567486642 0.058730296567486642
leaf_weight=2530.2159580439329 2490.3231098353863 4.1762710958719245 35.181920140981674
leaf_count=20011 19678 33 278
internal_value=-6.90455e-07 0.0587303 0.0587303
internal_weight=5059.9 2529.68 39.3582
internal_count=40000 19989 311
cat_boundaries=0 1
cat_threshold=1
is_linear=0
shrinkage=0.05


Tree=25
num_leaves=6
num_cat=1
split_feature=1 0 0 0 5
split_gain=6581.74 4.54747e-13 4.54747e-13 2.84217e-14 2.84217e-14
threshold=0 282.52000000000004 4699.6450000000013 296.68000000000006 84655.500000000015
decision_type=1 2 2 2 2
left_child=1 -1 -2 4 -3
right_child=2 3 -4 -5 -6
leaf_value=-0.058222022271673328 0.058232331313998825 -0.058222022271673328 0.058232331313998825 -0.058222022271673328 -0.058222022271673328
leaf_weight=2282.4099478125572 2256.0591294318438 53.361337780952454 170.30296774953604 29.955114617943764 61.122986912727356
leaf_count=18820 18586 440 1403 247 504
internal_value=-6.91817e-07 -0.058222 0.0582323 -0.058222 -0.058222
internal_weight=4853.21 2426.85 2426.36 144.439 114.484
internal_count=40000 20011 19989 1191 944
cat_boundaries=0 1
cat_threshold=1
is_linear=0
shrinkage=0.05


Tree=26
num_leaves=6
num_cat=1
split_feature=1 0 0 0 5
split_gain=6209.45 4.54747e-13 4.54747e-13 1.13687e-13 1.13687e-13
threshold=0 263.2050000000001 4110.0700000000006 4597.0800000000008 37761.000000000007
decision_type=1 2 2 2 2
left_child=1 -1 -2 -4 -3
right_child=2 4 3 -5 -6
leaf_value=-0.057756988863508857 0.057766635363305507 -0.057756988863508857 0.057766635363305507 0.057766635363305507 -0.057756988863508857
leaf_weight=2041.9858605787158 1835.3040525019169 54.87771600484848 273.12526860833168 217.73215916752815 229.74230259656906
leaf_count=17563 15771 472 2347 1871 1976
internal_value=-6.93743e-07 -0.057757 0.0577666 0.0577666 -0.057757
internal_weight=4652.77 2326.61 2326.16 490.857 284.62
internal_count=40000 20011 19989 4218 2448
cat_boundaries=0 1
cat_threshold=1
is_linear=0
shrinkage=0.05


Tree=27
num_leaves=8
num_cat=1
split_feature=1 0 0 0 0 5 5
split_gain=5860.94 4.54747e-13 4.54747e-13 4.54747e-13 5.68434e-14 2.84217e-14 1.77636e-15
threshold=0 298.79500000000007 250.79500000000004 4767.6950000000006 296.68000000000006 114.50000000000001 116.50000000000001
decision_type=1 2 2 2 2 2 2
left_child=1 2 -1 -2 -4 -5 -7
right_child=3 -3 4 5 -6 6 -8
leaf_value=-0.057321658183211083 0.057330699724497294 -0.057321658183211083 -0.057321658183211083 0.057330699724497294 -0.057321658183211083 0.057330699724497294 0.05733069972449728
leaf_weight=1851.598930567503 2107.4468054175377 10.027312338352202 350.39885893464088 115.53153192996979 17.492089301347733 2.6764061450958243 3.4570246040821075
leaf_count=16619 18898 90 3145 1036 157 24 31
internal_value=-6.91898e-07 -0.0573217 -0.0573217 0.0573307 -0.0573217 0.0573307 0.0573307
internal_weight=4458.63 2229.52 2219.49 2229.11 367.891 121.665 6.13343
internal_count=40000 20011 19921 19989 3302 1091 55
cat_boundaries=0 1
cat_threshold=1
is_linear=0
shrinkage=0.05


Tree=28
num_leaves=5
num_cat=1
split_feature=1 0 0 5
split_gain=5534.4 4.54747e-13 4.54747e-13 2.84217e-14
threshold=0 296.68000000000006 4732.3550000000005 18.500000000000004
decision_type=1 2 2 2
left_child=1 -1 -2 -4
right_child=2 -3 3 -5
leaf_value=-0.056913772923718568 0.056922242887269395 -0.056913772923718568 0.056922242887269395 0.056922242887269395
leaf_weight=2109.2360307276249 2002.0214586704969 26.360114328563213 19.65489000082016 113.54971777647734
leaf_count=19764 18742 247 184 1063
internal_value=-6.97122e-07 -0.0569138 0.0569222 0.0569222
internal_weight=4270.82 2135.6 2135.23 133.205
internal_count=40000 20011 19989 1247
cat_boundaries=0 1
cat_threshold=1
is_linear=0
shrinkage=0.05


Tree=29
num_leaves=6
num_cat=1
split_feature=1 6 0 0 5
split_gain=5228.19 9.09495e-13 4.54747e-13 1.42109e-14 3.55271e-15
threshold=0 14.065000000000003 21.985000000000003 19.505000000000006 141228.50000000003
decision_type=1 2 2 2 2
left_child=2 -2 3 -1 -5
right_child=1 -3 -4 4 -6
leaf_value=-0.056531269540455155 0.056539219004248409 0.056539219004248409 -0.056531269540455155 -0.056531269540455148 -0.056531269540455155
leaf_weight=64.68356466293335 1841.9837032109499 202.51694887876511 1963.9074711799622 13.181958675384523 3.0655717849731436
leaf_count=633 18009 1980 19219 129 30
internal_value=-6.96943e-07 0.0565392 -0.0565313 -0.0565313 -0.0565313
internal_weight=4089.34 2044.5 2044.84 80.9311 16.2475
internal_count=40000 19989 20011 792 159
cat_boundaries=0 1
cat_threshold=1
is_linear=0
shrinkage=0.05


Tree=30
num_leaves=5
num_cat=1
split_feature=1 0 6 5
split_gain=4940.82 4.54747e-13 4.54747e-13 2.84217e-14
threshold=0 4767.6950000000006 14.925000000000002 117.50000000000001
decision_type=1 2 2 2
left_child=-1 2 -2 -3
right_child=1 3 -4 -5
leaf_value=-0.056172293860629385 0.056179756767909109 0.056179756767909109 0.056179756767909109 0.056179756767909109
leaf_weight=1957.226116374135 1835.9134505242109 104.85060019791126 14.195459410548208 1.9579944014549244
leaf_count=20011 18753 1071 145 20
internal_value=-6.97762e-07 0.0561798 0.0561798 0.0561798
internal_weight=3914.14 1956.92 1850.11 106.809
internal_count=40000 19989 18898 1091
cat_boundaries=0 1
cat_threshold=1
is_linear=0
shrinkage=0.05


Tree=31
num_leaves=3
num_cat=1
split_feature=1 5
split_gain=4670.91 4.54747e-13
threshold=0 65.500000000000014
decision_type=1 2
left_child=-1 -2
right_child=1 -3
leaf_value=-0.055835137032722304 0.055842146748229696 0.055842146748229696
leaf_weight=1872.7283801808953 1027.0399835705757 845.40640749037266
leaf_count=20011 10964 9025
internal_value=-6.99456e-07 0.0558421
internal_weight=3745.17 1872.45
internal_count=40000 19989
cat_boundaries=0 1
cat_threshold=1
is_linear=0
shrinkage=0.05


Tree=32
num_leaves=3
num_cat=1
split_feature=1 0
split_gain=4417.24 4.54747e-13
threshold=0 294.0750000000001
decision_type=1 2
left_child=1 -1
right_child=-2 -3
leaf_value=-0.055518263064569945 0.055524851564810074 -0.055518263064569945
leaf_weight=1755.0503834486008 1791.0465049445629 36.253973543643951
leaf_count=19606 19989 405
internal_value=-7.02105e-07 -0.0555183
internal_weight=3582.35 1791.3
internal_count=40000 20011
cat_boundaries=0 1
cat_threshold=1
is_linear=0
shrinkage=0.05


Tree=33
num_leaves=4
num_cat=1
split_feature=1 0 5
split_gain=4178.68 4.54747e-13 7.10543e-15
threshold=0 4897.3750000000009 109.50000000000001
decision_type=1 2 2
left_child=-1 -2 -3
right_child=1 2 -4
leaf_value=-0.055220250386724873 0.055226446431909985 0.055226446431909985 0.055226446431909985
leaf_weight=1712.904398649931 1672.6558782160282 37.528084963560104 2.4847362190484992
leaf_count=20011 19522 438 29
internal_value=-7.01663e-07 0.0552264 0.0552264
internal_weight=3425.57 1712.67 40.0128
internal_count=40000 19989 467
cat_boundaries=0 1
cat_threshold=1
is_linear=0
shrinkage=0.05


Tree=34
num_leaves=8
num_cat=1
split_feature=1 0 0 6 5 5 7
split_gain=3954.17 2.27374e-13 2.27374e-13 2.27374e-13 1.42109e-14 1.42109e-14 1.77636e-15
threshold=0 285.00500000000005 4800.1000000000013 6.1950000000000012 156158.00000000003 96.500000000000014 0.55500000000000016
decision_type=1 2 2 2 2 2 2
left_child=1 -1 3 -2 -3 -4 -6
right_child=2 4 5 -5 6 -7 -8
leaf_value=-0.054939798396535983 0.054945632809680858 -0.054939798396535983 0.054945632809680858 0.054945632809680858 -0.054939798396536003 0.054945632809680858 -0.054939798396535983
leaf_weight=1552.8610908910632 184.45650282502174 75.773271337151527 60.529909230768681 1376.2158794254065 2.2093718424439412 16.053940743207932 6.6281155273318291
leaf_count=18977 2252 926 739 16802 27 196 81
internal_value=-7.00377e-07 -0.0549398 0.0549456 0.0549456 -0.0549398 0.0549456 -0.0549398
internal_weight=3274.73 1637.47 1637.26 1560.67 84.6108 76.5838 8.83749
internal_count=40000 20011 19989 19054 1034 935 108
cat_boundaries=0 1
cat_threshold=1
is_linear=0
shrinkage=0.05


Tree=35
num_leaves=9
num_cat=1
split_feature=1 5 0 6 6 7 5 5
split_gain=3742.78 4.54747e-13 2.27374e-13 2.27374e-13 1.13687e-13 1.42109e-14 1.77636e-15 8.88178e-16
threshold=0 72.500000000000014 298.79500000000007 1.4350000000000003 6.995000000000001 1.635 124401.50000000001 46019.500000000007
decision_type=1 2 2 2 2 2 2 2
left_child=2 -2 3 -1 -3 -5 7 -4
right_child=1 4 6 5 -6 -7 -8 -9
leaf_value=-0.054675727497878315 0.054681222258548545 0.054681222258548545 -0.054675727497878315 -0.054675727497878315 0.054681222258548545 -0.054675727497878315 -0.054675727497878295 -0.054675727497878301
leaf_weight=1485.5666939020157 950.71523766964674 122.82191913574934 2.2679213583469382 59.591588795185089 491.20939616113901 12.747282117605208 1.8769004344940183 2.8935548365116119
leaf_count=18996 12145 1569 29 762 6275 163 24 37
internal_value=-7.01172e-07 0.0546812 -0.0546757 -0.0546757 0.0546812 -0.0546757 -0.0546757 -0.0546757
internal_weight=3129.69 1564.75 1564.94 1557.91 614.031 72.3389 7.03838 5.16148
internal_count=40000 19989 20011 19921 7844 925 90 66
cat_boundaries=0 1
cat_threshold=1
is_linear=0
shrinkage=0.05


Tree=36
num_leaves=4
num_cat=1
split_feature=1 0 0
split_gain=3543.62 2.27374e-13 2.27374e-13
threshold=0 294.0750000000001 3879.5000000000005
decision_type=1 2 2
left_child=1 -1 -2
right_child=2 -3 -4
leaf_value=-0.054426940465799135 0.054432121788492049 -0.054426940465799135 0.054432121788492049
leaf_weight=1464.9909030497074 1097.3885270357132 30.262231752276421 397.68366945534945
leaf_count=19606 14672 405 5317
internal_value=-7.02755e-07 -0.0544269 0.0544321
internal_weight=2990.33 1495.25 1495.07
internal_count=40000 20011 19989
cat_boundaries=0 1
cat_threshold=1
is_linear=0
shrinkage=0.05


Tree=37
num_leaves=4
num_cat=1
split_feature=1 0 6
split_gain=3355.9 4.54747e-13 4.54747e-13
threshold=0 294.0750000000001 11.985000000000001
decision_type=1 2 2
left_child=1 -1 -2
right_child=2 -3 -4
leaf_value=-0.054192434987735488 0.054197322135538351 -0.054192434987735488 0.054197322135538351
leaf_weight=1399.4201247543097 990.40378655493259 28.907740004360676 437.75818786770105
leaf_count=19606 13862 405 6127
internal_value=-7.03788e-07 -0.0541924 0.0541973
internal_weight=2856.49 1428.33 1428.16
internal_count=40000 20011 19989
cat_boundaries=0 1
cat_threshold=1
is_linear=0
shrinkage=0.05


Tree=38
num_leaves=7
num_cat=1
split_feature=1 0 0 0 5 5
split_gain=3178.87 2.27374e-13 2.27374e-13 7.10543e-15 3.55271e-15 1.77636e-15
threshold=0 294.0750000000001 4966.2200000000003 296.68000000000006 89.500000000000014 150080.50000000003
decision_type=1 2 2 2 2 2
left_child=1 -1 -2 5 -4 -3
right_child=2 3 4 -5 -6 -7
leaf_value=-0.053971283101221339 0.053975892458597102 -0.053971283101221318 0.053975892458597109 -0.053971283101221339 0.053975892458597088 -0.053971283101221339
leaf_weight=1336.4861658364534 1353.3655022382736 8.929903484880926 7.8469815850257856 16.837298937141895 2.7293848991394043 1.8405144587159146
leaf_count=19606 19834 131 115 247 40 27
internal_value=-7.02885e-07 -0.0539713 0.0539759 -0.0539713 0.0539759 -0.0539713
internal_weight=2728.04 1364.09 1363.94 27.6077 10.5764 10.7704
internal_count=40000 20011 19989 405 155 158
cat_boundaries=0 1
cat_threshold=1
is_linear=0
shrinkage=0.05


Tree=39
num_leaves=6
num_cat=1
split_feature=1 0 0 5 5
split_gain=3011.84 2.27374e-13 2.27374e-13 1.42109e-14 7.10543e-15
threshold=0 289.20500000000004 4767.6950000000006 116.50000000000001 167623.50000000003
decision_type=1 2 2 2 2
left_child=1 -1 -2 -4 -3
right_child=2 4 3 -5 -6
leaf_value=-0.053762633850563561 0.053766978698022133 -0.053762633850563561 0.053766978698022133 0.053766978698022133 -0.053762633850563561
leaf_weight=1255.6764771044254 1231.2538425028324 45.105940215289593 69.061756432056427 2.0197306126356116 1.6922863572835911
leaf_count=19292 18898 693 1060 31 26
internal_value=-7.0434e-07 -0.0537626 0.053767 0.053767 -0.0537626
internal_weight=2604.81 1302.47 1302.34 71.0815 46.7982
internal_count=40000 20011 19989 1091 719
cat_boundaries=0 1
cat_threshold=1
is_linear=0
shrinkage=0.05


Tree=40
num_leaves=3
num_cat=1
split_feature=1 0
split_gain=2854.19 2.27374e-13
threshold=0 4563.1450000000013
decision_type=1 2
left_child=-1 -2
right_child=1 -3
leaf_value=-0.053565686015354191 0.053569790026303313 0.053569790026303313
leaf_weight=1243.3924262486398 1117.1902721822262 126.07419450581074
leaf_count=20011 17962 2027
internal_value=-7.04508e-07 0.0535698
internal_weight=2486.66 1243.26
internal_count=40000 19989
cat_boundaries=0 1
cat_threshold=1
is_linear=0
shrinkage=0.05


Tree=41
num_leaves=4
num_cat=1
split_feature=1 5 7
split_gain=2705.32 4.54747e-13 2.27374e-13
threshold=0 156158.00000000003 6.4150000000000009
decision_type=1 2 2
left_child=1 -1 -2
right_child=2 -3 -4
leaf_value=-0.053379708782298044 0.053383587736680588 -0.053379708782298044 0.053383587736680588
leaf_weight=1073.9090576469898 124.37004301697016 112.85889864712954 1062.2804533392191
leaf_count=18108 2095 1903 17894
internal_value=-7.02368e-07 -0.0533797 0.0533836
internal_weight=2373.42 1186.77 1186.65
internal_count=40000 20011 19989
cat_boundaries=0 1
cat_threshold=1
is_linear=0
shrinkage=0.05


Tree=42
num_leaves=5
num_cat=1
split_feature=1 0 0 6
split_gain=2564.69 2.27374e-13 2.27374e-13 2.84217e-14
threshold=0 280.11000000000007 4464.5350000000008 14.925000000000002
decision_type=1 2 2 2
left_child=1 -1 -2 -4
right_child=2 -3 3 -5
leaf_value=-0.053204034519002512 0.05320769532293132 -0.053204034519002512 0.05320769532293132 0.05320769532293132
leaf_weight=1056.2318848371506 991.0675819888711 76.290016651153564 140.10004174336791 1.2463408485054959
leaf_count=18663 17494 1348 2473 22
internal_value=-7.05156e-07 -0.053204 0.0532077 0.0532077
internal_weight=2264.94 1132.52 1132.41 141.346
internal_count=40000 20011 19989 2495
cat_boundaries=0 1
cat_threshold=1
is_linear=0
shrinkage=0.05


Tree=43
num_leaves=5
num_cat=1
split_feature=1 0 0 0
split_gain=2431.8 2.27374e-13 2.27374e-13 3.55271e-15
threshold=0 291.73500000000007 4928.3000000000002 4966.2200000000003
decision_type=1 2 2 2
left_child=1 -1 -2 -4
right_child=2 -3 3 -5
leaf_value=-0.053038020914286527 0.053041479323054364 -0.053038020914286527 0.053041479323054357 0.053041479323054357
leaf_weight=1050.2274792306125 1063.6650720238686 30.347464822232723 8.432348370552063 8.3782948553562164
leaf_count=19449 19678 562 156 155
internal_value=-7.06218e-07 -0.053038 0.0530415 0.0530415
internal_weight=2161.05 1080.57 1080.48 16.8106
internal_count=40000 20011 19989 311
cat_boundaries=0 1
cat_threshold=1
is_linear=0
shrinkage=0.05


Tree=44
num_leaves=5
num_cat=1
split_feature=1 0 5 5
split_gain=2306.18 2.27374e-13 2.27374e-13 8.88178e-16
threshold=0 298.79500000000007 158811.00000000003 96064.000000000015
decision_type=1 2 2 2
left_child=1 2 -1 -3
right_child=-2 3 -4 -5
leaf_value=-0.05288109060607378 0.05288436190936481 -0.05288109060607378 -0.05288109060607378 -0.052881090606073759
leaf_weight=943.68612065538764 1030.7566667161882 2.7817594036459914 82.525528974831104 1.854506269097328
leaf_count=18319 19989 54 1602 36
internal_value=-7.04988e-07 -0.0528811 -0.0528811 -0.0528811
internal_weight=2061.6 1030.85 1026.21 4.63627
internal_count=40000 20011 19921 90
cat_boundaries=0 1
cat_threshold=1
is_linear=0
shrinkage=0.05


Tree=45
num_leaves=3
num_cat=1
split_feature=1 0
split_gain=2187.39 2.27374e-13
threshold=0 12.295000000000002
decision_type=1 2
left_child=1 -1
right_child=-2 -3
leaf_value=-0.052732691209384654 0.052735786050447236 -0.052732691209384654
leaf_weight=7.7635047361254683 983.17863091081381 975.49911092594266
leaf_count=158 19989 19853
internal_value=-7.04806e-07 -0.0527327
internal_weight=1966.44 983.263
internal_count=40000 20011
cat_boundaries=0 1
cat_threshold=1
is_linear=0
shrinkage=0.05


Tree=46
num_leaves=4
num_cat=1
split_feature=1 0 0
split_gain=2075.03 2.27374e-13 2.27374e-13
threshold=0 4966.2200000000003 3353.5850000000005
decision_type=1 2 2
left_child=-1 2 -2
right_child=1 -3 -4
leaf_value=-0.052592323571956201 0.052595254208967858 0.052595254208967858 0.052595254208967858
leaf_weight=937.74159102141857 570.36667569726706 7.2708968445658675 360.02666633576155
leaf_count=20011 12159 155 7675
internal_value=-7.03941e-07 0.0525953 0.0525953
internal_weight=1875.41 937.664 930.393
internal_count=40000 19989 19834
cat_boundaries=0 1
cat_threshold=1
is_linear=0
shrinkage=0.05


Tree=47
num_leaves=9
num_cat=1
split_feature=1 0 0 0 5 6 6 7
split_gain=1968.72 1.13687e-13 1.13687e-13 1.13687e-13 1.42109e-14 1.77636e-15 1.77636e-15 1.77636e-15
threshold=0 296.68000000000006 134.74500000000003 4464.5350000000008 108.50000000000001 1.3950000000000002 1.3050000000000004 9.1650000000000009
decision_type=1 2 2 2 2 2 2 2
left_child=1 2 -1 -2 -5 6 -3 -6
right_child=3 5 -4 4 7 -7 -8 -9
leaf_value=-0.05245950716069811 0.052462283405397936 -0.052459507160698131 -0.05245950716069811 0.052462283405397936 0.05246228340539795 -0.052459507160698006 -0.052459507160698006 0.052462283405397915
leaf_weight=381.84066714718938 782.53236570209265 9.2499728612601704 501.33065473660827 101.27205190062523 7.7385446019470674 0.89371718466281969 0.89371718466281969 2.5944253578782082
leaf_count=8545 17494 207 11219 2264 173 20 20 58
internal_value=-7.04673e-07 -0.0524595 -0.0524595 0.0524623 0.0524623 -0.0524595 -0.0524595 0.0524623
internal_weight=1788.35 894.209 883.171 894.137 111.605 11.0374 10.1437 10.333
internal_count=40000 20011 19764 19989 2495 247 227 231
cat_boundaries=0 1
cat_threshold=1
is_linear=0
shrinkage=0.05


Tree=48
num_leaves=8
num_cat=1
split_feature=1 0 0 0 7 5 5
split_gain=1868.1 1.13687e-13 1.13687e-13 1.13687e-13 2.84217e-14 1.77636e-15 1.77636e-15
threshold=0 296.68000000000006 272.85000000000008 4306.5900000000011 6.1450000000000005 151248.50000000003 133121.00000000003
decision_type=1 2 2 2 2 2 2
left_child=1 2 -1 -2 -5 6 -3
right_child=3 5 -4 4 -6 -7 -8
leaf_value=-0.052333809508570722 0.052336432761496944 -0.052333809508570743 -0.052333809508570722 0.052336432761496944 0.052336432761496944 -0.052333809508570618 -0.052333809508570639
leaf_weight=775.08868825435638 712.80314930900931 8.4359916597604698 66.976661056280136 4.6914585307240477 135.02870643883944 0.89472638815641481 1.192968517541886
leaf_count=18192 16713 198 1572 110 3166 21 28
internal_value=-7.05571e-07 -0.0523338 -0.0523338 0.0523364 0.0523364 -0.0523338 -0.0523338
internal_weight=1705.11 852.589 842.065 852.523 139.72 10.5237 9.62896
internal_count=40000 20011 19764 19989 3276 247 226
cat_boundaries=0 1
cat_threshold=1
is_linear=0
shrinkage=0.05


Tree=49
num_leaves=8
num_cat=1
split_feature=1 0 0 0 5 7 5
split_gain=1772.84 1.13687e-13 1.13687e-13 7.10543e-15 7.10543e-15 3.55271e-15 4.44089e-16
threshold=0 280.11000000000007 3777.5250000000005 298.79500000000007 123213.50000000001 0.99500000000000011 106520.00000000001
decision_type=1 2 2 2 2 2 2
left_child=1 -1 -2 4 -3 -6 -5
right_child=2 3 -4 6 5 -7 -8
leaf_value=-0.052214815525435956 0.052217296169913656 -0.052214815525435956 0.052217296169913656 -0.052214815525435943 -0.05221481552543597 -0.052214815525435943 -0.052214815525435922
leaf_weight=758.05614291876554 577.40982224047184 36.028280489146709 235.33892339468002 2.3558514863252635 7.3518813624978048 7.7174445241689682 1.2997801303863523
leaf_count=18663 14201 887 5788 58 181 190 32
internal_value=-7.074e-07 -0.0522148 0.0522173 -0.0522148 -0.0522148 -0.0522148 -0.0522148
internal_weight=1625.56 812.809 812.749 54.7532 51.0976 15.0693 3.65563
internal_count=40000 20011 19989 1348 1258 371 90
cat_boundaries=0 1
cat_threshold=1
is_linear=0
shrinkage=0.05


Tree=50
num_leaves=6
num_cat=1
split_feature=1 0 6 7 5
split_gain=1682.65 2.27374e-13 1.13687e-13 1.13687e-13 7.10543e-15
threshold=0 287.20500000000004 11.785000000000002 0.15500000000000003 121961.50000000001
decision_type=1 2 2 2 2
left_child=1 3 -2 -1 -3
right_child=2 4 -4 -5 -6
leaf_value=-0.052102137048469103 0.052104485380091672 -0.052102137048469103 0.052104485380091672 -0.052102137048469103 -0.052102137048469103
leaf_weight=22.921415507793427 521.378308609128 23.966817904263735 253.36381232365966 717.92041612416506 9.9894006773829442
leaf_count=592 13452 619 6537 18542 258
internal_value=-7.06457e-07 -0.0521021 0.0521045 -0.0521021 -0.0521021
internal_weight=1549.54 774.798 774.742 740.842 33.9562
internal_count=40000 20011 19989 19134 877
cat_boundaries=0 1
cat_threshold=1
is_linear=0
shrinkage=0.05


Tree=51
num_leaves=8
num_cat=1
split_feature=1 0 0 7 5 5 5
split_gain=1597.22 2.27374e-13 1.13687e-13 2.84217e-14 7.10543e-15 3.55271e-15 3.55271e-15
threshold=0 1998.7250000000001 287.20500000000004 6.6550000000000011 91079.000000000015 86088.500000000015 65398.500000000007
decision_type=1 2 2 2 2 2 2
left_child=2 3 -1 -2 5 6 -4
right_child=1 -3 4 -5 -6 -7 -8
leaf_value=-0.051995410410693846 0.051997641919935403 0.051997641919935403 -0.051995410410693846 0.051997641919935403 -0.051995410410693846 -0.051995410410693735 -0.051995410410693825
leaf_weight=706.1204896196723 35.279607810080051 527.16230727732182 12.215212818235157 175.99167707562447 15.647281676530836 0.77498329058289606 3.7273005880415448
leaf_count=19134 955 14270 331 4764 424 21 101
internal_value=-7.03549e-07 0.0519976 -0.0519954 0.0519976 -0.0519954 -0.0519954 -0.0519954
internal_weight=1476.92 738.434 738.485 211.271 32.3648 16.7175 15.9425
internal_count=40000 19989 20011 5719 877 453 432
cat_boundaries=0 1
cat_threshold=1
is_linear=0
shrinkage=0.05


Tree=52
num_leaves=5
num_cat=1
split_feature=1 0 0 5
split_gain=1516.29 1.13687e-13 1.13687e-13 1.77636e-15
threshold=0 294.0750000000001 4966.2200000000003 90.500000000000014
decision_type=1 2 2 2
left_child=1 -1 -2 -4
right_child=2 -3 3 -5
leaf_value=-0.051894315169117126 0.051896424222230432 -0.051894315169117126 0.051896424222230432 0.051896424222230397
leaf_weight=689.55872409045696 698.29799505323172 14.244174398481844 4.0840257853269568 1.3730776347219942
leaf_count=19606 19834 405 116 39
internal_value=-7.07816e-07 -0.0518943 0.0518964 0.0518964
internal_weight=1407.56 703.803 703.755 5.4571
internal_count=40000 20011 19989 155
cat_boundaries=0 1
cat_threshold=1
is_linear=0
shrinkage=0.05


Tree=53
num_leaves=5
num_cat=1
split_feature=1 0 0 0
split_gain=1439.61 1.13687e-13 1.13687e-13 2.84217e-14
threshold=0 83.995000000000019 4046.5250000000005 74.65000000000002
decision_type=1 2 2 2
left_child=1 3 -2 -1
right_child=2 -3 -4 -5
leaf_value=-0.051798516411110045 0.05180051589243384 -0.051798516411110045 0.05180051589243384 -0.051798516411110045
leaf_weight=148.50855839252472 518.58991919830441 500.99434232711792 152.05081929266453 21.181992530822754
leaf_count=4431 15457 14948 4532 632
internal_value=-7.05435e-07 -0.0517985 0.0518005 -0.0517985
internal_weight=1341.33 670.685 670.641 169.691
internal_count=40000 20011 19989 5063
cat_boundaries=0 1
cat_threshold=1
is_linear=0
shrinkage=0.05


Tree=54
num_leaves=6
num_cat=1
split_feature=1 0 0 5 5
split_gain=1366.94 1.13687e-13 1.13687e-13 1.13687e-13 1.77636e-15
threshold=0 289.20500000000004 4928.3000000000002 148801.50000000003 109.50000000000001
decision_type=1 2 2 2 2
left_child=1 3 -2 -1 -4
right_child=2 -3 4 -5 -6
leaf_value=-0.051707729585248434 0.051709620076011598 -0.051707729585248434 0.051709620076011611 -0.051707729585248434 0.051709620076011487
leaf_weight=530.32570700347424 629.08392261713743 22.961832068860531 9.1431040689349139 85.779528424143791 0.7992223836481579
leaf_count=16606 19678 719 286 2686 25
internal_value=-7.06173e-07 -0.0517077 0.0517096 -0.0517077 0.0517096
internal_weight=1278.09 639.067 639.026 616.105 9.94233
internal_count=40000 20011 19989 19292 311
cat_boundaries=0 1
cat_threshold=1
is_linear=0
shrinkage=0.05


Tree=55
num_leaves=7
num_cat=1
split_feature=1 0 0 5 5 7
split_gain=1298.05 1.13687e-13 1.13687e-13 3.55271e-15 1.77636e-15 1.77636e-15
threshold=0 132.48000000000005 4868.8800000000001 63.500000000000007 59.500000000000007 9.5450000000000017
decision_type=1 2 2 2 2 2
left_child=1 -1 -2 4 5 -4
right_child=2 -3 3 -5 -6 -7
leaf_value=-0.051621665150866726 0.051623465571864958 -0.051621665150866726 0.051623465571864958 0.051623465571864958 0.051623465571864813 0.051623465571864868
leaf_weight=255.16609786823392 589.87335479259491 353.72118861414492 8.010776221752165 9.2900636792182905 0.63964372873306352 1.035613656044007
leaf_count=8386 19366 11625 263 305 21 34
internal_value=-7.03674e-07 -0.0516217 0.0516235 0.0516235 0.0516235 0.0516235
internal_weight=1217.74 608.887 608.849 18.9761 9.68603 9.04639
internal_count=40000 20011 19989 623 318 297
cat_boundaries=0 1
cat_threshold=1
is_linear=0
shrinkage=0.05


Tree=56
num_leaves=3
num_cat=1
split_feature=1 5
split_gain=1232.74 1.13687e-13
threshold=0 158811.00000000003
decision_type=1 2
left_child=1 -1
right_child=-2 -3
leaf_value=-0.051540077305221338 0.051541782836725863 -0.051540077305221338
leaf_weight=533.44303736463189 580.05017993599176 46.642204495146871
leaf_count=18402 19989 1609
internal_value=-7.04918e-07 -0.0515401
internal_weight=1160.14 580.085
internal_count=40000 20011
cat_boundaries=0 1
cat_threshold=1
is_linear=0
shrinkage=0.05


Tree=57
num_leaves=2
num_cat=1
split_feature=1
split_gain=1170.82
threshold=0
decision_type=1
left_child=-1
right_child=-2
leaf_value=-0.051462717145446861 0.051464331566663572
leaf_weight=552.60271259024739 552.57020114734769
leaf_count=20011 19989
internal_value=-7.06718e-07
internal_weight=1105.17
internal_count=40000
cat_boundaries=0 1
cat_threshold=1
is_linear=0
shrinkage=0.05


Tree=58
num_leaves=5
num_cat=1
split_feature=1 0 0 5
split_gain=1112.09 1.13687e-13 1.13687e-13 4.44089e-16
threshold=0 298.79500000000007 104.18000000000002 88518.500000000015
decision_type=1 2 2 2
left_child=1 2 -1 -3
right_child=-2 3 -4 -5
leaf_value=-0.051389344730397801 0.051390874817128375 -0.051389344730397794 -0.051389344730397801 -0.051389344730397774
leaf_weight=170.61234123632312 526.35336923226714 1.2889307308942073 353.40376264415681 1.078493060544133
leaf_count=6486 19989 49 13435 41
internal_value=-7.07163e-07 -0.0513893 -0.0513893 -0.0513893
internal_weight=1052.74 526.384 524.016 2.36742
internal_count=40000 20011 19921 90
cat_boundaries=0 1
cat_threshold=1
is_linear=0
shrinkage=0.05


Tree=59
num_leaves=5
num_cat=1
split_feature=1 0 5 5
split_gain=1056.38 1.13687e-13 1.77636e-15 1.77636e-15
threshold=0 294.0750000000001 163899.00000000003 146463.50000000003
decision_type=1 2 2 2
left_child=1 -1 3 -3
right_child=-2 2 -4 -5
leaf_value=-0.051319748118407817 0.051321200264918092 -0.051319748118407837 -0.051319748118407629 -0.051319748118407726
leaf_weight=491.22614980861545 501.34539933130145 8.618881747126574 0.50109777599573213 1.0272504407912499
leaf_count=19606 19989 344 20 41
internal_value=-7.06003e-07 -0.0513197 -0.0513197 -0.0513197
internal_weight=1002.72 501.373 10.1472 9.64613
internal_count=40000 20011 405 385
cat_boundaries=0 1
cat_threshold=1
is_linear=0
shrinkage=0.05


Tree=60
num_leaves=8
num_cat=1
split_feature=1 0 0 7 0 5 5
split_gain=1003.53 1.13687e-13 5.68434e-14 5.68434e-14 1.42109e-14 1.77636e-15 1.77636e-15
threshold=0 83.995000000000019 4897.3750000000009 9.3750000000000018 69.965000000000018 113.50000000000001 103.50000000000001
decision_type=1 2 2 2 2 2 2
left_child=1 4 3 -2 -1 6 -4
right_child=2 -3 5 -5 -6 -7 -8
leaf_value=-0.051253726988446595 0.05125510694844411 -0.051253726988446595 0.05125510694844413 0.05125510694844411 -0.051253726988446595 0.051255106948443922 0.051255106948443999
leaf_weight=98.19571940228343 393.88651861995459 356.70221473276615 9.8417882025241799 72.451804898679256 22.62200291454792 0.47775670886039812 0.83607424050569612
leaf_count=4115 16489 14948 412 3033 948 20 35
internal_value=-7.05106e-07 -0.0512537 0.0512551 0.0512551 -0.0512537 0.0512551 0.0512551
internal_weight=955.014 477.52 477.494 466.338 120.818 11.1556 10.6779
internal_count=40000 20011 19989 19522 5063 467 447
cat_boundaries=0 1
cat_threshold=1
is_linear=0
shrinkage=0.05


Tree=61
num_leaves=5
num_cat=1
split_feature=1 0 0 7
split_gain=953.395 1.13687e-13 1.13687e-13 7.10543e-15
threshold=0 214.17000000000004 4563.1450000000013 6.0550000000000006
decision_type=1 2 2 2
left_child=1 -1 -2 -4
right_child=2 -3 3 -5
leaf_value=-0.051191090503699535 0.05119239878422599 -0.051191090503699535 0.05119239878422599 0.05119239878422599
leaf_weight=320.25677779316902 408.63448799774051 134.51602808386087 0.59149853512644668 45.522637261077762
leaf_count=14092 17962 5919 26 2001
internal_value=-7.0693e-07 -0.0511911 0.0511924 0.0511924
internal_weight=909.521 454.773 454.749 46.1141
internal_count=40000 20011 19989 2027
cat_boundaries=0 1
cat_threshold=1
is_linear=0
shrinkage=0.05


Tree=62
num_leaves=3
num_cat=1
split_feature=1 0
split_gain=905.817 1.13687e-13
threshold=0 257.08000000000004
decision_type=1 2
left_child=1 -1
right_child=-2 -3
leaf_value=-0.051131649124437732 0.051132892493686646 -0.051131649124437732
leaf_weight=369.90967143326998 433.06096609868109 63.173784865066409
leaf_count=17092 19989 2919
internal_value=-7.0601e-07 -0.0511316
internal_weight=866.144 433.083
internal_count=40000 20011
cat_boundaries=0 1
cat_threshold=1
is_linear=0
shrinkage=0.05


Tree=63
num_leaves=9
num_cat=1
split_feature=1 0 0 5 6 6 6 6
split_gain=860.665 1.13687e-13 1.42109e-14 4.44089e-16 4.44089e-16 4.44089e-16 2.22045e-16 1.11022e-16
threshold=0 4272.7350000000015 4306.5900000000011 89.500000000000014 7.4050000000000011 13.295000000000002 11.665000000000001 9.6850000000000005
decision_type=1 2 2 2 2 2 2 2
left_child=-1 -2 3 4 -3 6 7 -6
right_child=1 2 -4 -5 5 -7 -8 -9
leaf_value=-0.051075243306577991 0.051076417921389852 0.051076417921389741 0.051076417921389852 0.051076417921389797 0.051076417921389776 0.051076417921389776 0.051076417921389741 0.051076417921389741
leaf_weight=412.40522202663124 341.55959569662809 0.41261125355958927 67.585723333060741 0.8664836324751376 0.51576406694948651 0.55702519230544556 0.45387237891554832 0.43324181623756886
leaf_count=20011 16556 20 3276 42 25 27 22 21
internal_value=-7.07232e-07 0.0510764 0.0510764 0.0510764 0.0510764 0.0510764 0.0510764 0.0510764
internal_weight=824.79 412.384 70.8247 3.239 2.37251 1.9599 1.40288 0.949006
internal_count=40000 19989 3433 157 115 95 68 46
cat_boundaries=0 1
cat_threshold=1
is_linear=0
shrinkage=0.05


Tree=64
num_leaves=9
num_cat=1
split_feature=1 0 0 5 5 5 7 5
split_gain=817.809 1.13687e-13 5.68434e-14 5.68434e-14 2.84217e-14 3.55271e-15 1.77636e-15 4.44089e-16
threshold=0 291.73500000000007 4966.2200000000003 81.500000000000014 109.50000000000001 163899.00000000003 1.655 78.500000000000014
decision_type=1 2 2 2 2 2 2 2
left_child=1 -1 3 -2 -5 6 -3 -4
right_child=2 5 7 4 -6 -7 -8 -9
leaf_value=-0.051021699523087931 0.051022821950329381 -0.051021699523087952 0.051022821950329367 0.051022821950329381 0.051022821950329381 -0.051021699523087764 -0.051021699523087875 0.051022821950329339
leaf_weight=381.66464821435511 265.92750495113432 8.6737505532801098 2.0037383101880546 90.914714701473713 32.786659212782979 0.52984449081122953 1.825019912794233 1.0411581415683029
leaf_count=19449 13537 442 102 4628 1669 27 93 53
internal_value=-7.04837e-07 -0.0510217 0.0510228 0.0510228 0.0510228 -0.0510217 -0.0510217 0.0510228
internal_weight=785.367 392.693 392.674 389.629 123.701 11.0286 10.4988 3.0449
internal_count=40000 20011 19989 19834 6297 562 535 155
cat_boundaries=0 1
cat_threshold=1
is_linear=0
shrinkage=0.05


Tree=65
num_leaves=7
num_cat=1
split_feature=1 0 0 5 6 5
split_gain=777.13 1.13687e-13 5.68434e-14 3.55271e-15 8.88178e-16 4.44089e-16
threshold=0 296.68000000000006 4800.1000000000013 9.5000000000000018 0.31500000000000006 3.5000000000000004
decision_type=1 2 2 2 2 2
left_child=1 -1 -2 5 -3 -4
right_child=2 4 3 -5 -6 -7
leaf_value=-0.050970881141949934 0.050971947098752482 -0.050970881141949934 0.050971947098752059 0.050971947098752482 -0.05097088114194992 0.05097194709875244
leaf_weight=369.28923594206572 356.39746044576168 0.63528810068964858 0.43020581454038875 16.048547342419624 3.9798931013792753 1.0100484341382978
leaf_count=19764 19054 34 23 858 213 54
internal_value=-7.04522e-07 -0.0509709 0.0509719 0.0509719 -0.0509709 0.0509719
internal_weight=747.791 373.904 373.886 17.4888 4.61518 1.44025
internal_count=40000 20011 19989 935 247 77
cat_boundaries=0 1
cat_threshold=1
is_linear=0
shrinkage=0.05


Tree=66
num_leaves=8
num_cat=1
split_feature=1 0 0 0 5 5 5
split_gain=738.511 5.68434e-14 5.68434e-14 7.10543e-15 2.22045e-16 1.11022e-16 1.11022e-16
threshold=0 265.72000000000008 4046.5250000000005 298.79500000000007 87263.500000000015 37761.000000000007 140102.00000000003
decision_type=1 2 2 2 2 2 2
left_child=1 -1 -2 -3 5 -5 -6
right_child=2 3 -4 4 6 -7 -8
leaf_value=-0.050922633166715164 0.050923644676162706 -0.050922633166715164 0.050923644676162706 -0.050922633166715171 -0.050922633166715026 -0.050922633166715053 -0.050922633166715019
leaf_weight=315.24030096828938 275.27088942378759 39.155976435169578 80.709560126066208 0.40917194820940384 0.39138186350464821 0.44475211761891842 0.35580169409513474
leaf_count=17720 15457 2201 4532 23 22 25 20
internal_value=-7.0553e-07 -0.0509226 0.0509236 -0.0509226 -0.0509226 -0.0509226 -0.0509226
internal_weight=711.978 355.997 355.98 40.7571 1.60111 0.853924 0.747184
internal_count=40000 20011 19989 2291 90 48 42
cat_boundaries=0 1
cat_threshold=1
is_linear=0
shrinkage=0.05


Tree=67
num_leaves=7
num_cat=1
split_feature=1 0 0 5 5 6
split_gain=701.845 5.68434e-14 5.68434e-14 3.55271e-15 3.55271e-15 1.77636e-15
threshold=0 277.27500000000003 4928.3000000000002 119532.50000000001 53118.500000000007 1.425
decision_type=1 2 2 2 2 2
left_child=1 -1 -2 4 -3 -6
right_child=2 3 -4 -5 5 -7
leaf_value=-0.050876830843454061 0.05087778621114613 -0.050876830843454006 0.05087778621114613 -0.050876830843454061 -0.050876830843454061 -0.050876830843453902
leaf_weight=313.44171868637204 333.64352073892951 7.6387233939021888 5.2730528991669408 8.1468424666672927 9.0953314024954999 0.60974288731813509
leaf_count=18506 19678 451 311 481 537 36
internal_value=-7.07106e-07 -0.0508768 0.0508778 -0.0508768 -0.0508768 -0.0508768
internal_weight=677.849 338.932 338.917 25.4906 17.3438 9.70507
internal_count=40000 20011 19989 1505 1024 573
cat_boundaries=0 1
cat_threshold=1
is_linear=0
shrinkage=0.05


Tree=68
num_leaves=3
num_cat=1
split_feature=1 0
split_gain=667.03 5.68434e-14
threshold=0 4563.1450000000013
decision_type=1 2
left_child=-1 -2
right_child=1 -3
leaf_value=-0.050833331215557755 0.050834241670968922 0.050834241670968922
leaf_weight=322.67135698720813 289.93737598508596 32.71924402192235
leaf_count=20011 17962 2027
internal_value=-7.05634e-07 0.0508342
internal_weight=645.328 322.657
internal_count=40000 19989
cat_boundaries=0 1
cat_threshold=1
is_linear=0
shrinkage=0.05


Tree=69
num_leaves=3
num_cat=1
split_feature=1 0
split_gain=633.97 5.68434e-14
threshold=0 3713.5200000000004
decision_type=1 2
left_child=-1 -2
right_child=1 -3
leaf_value=-0.05079203199288454 0.050792893642396156 0.050792893642396156
leaf_weight=307.17775837052613 213.39669700618833 93.767310803756118
leaf_count=20011 13887 6102
internal_value=-7.06042e-07 0.0507929
internal_weight=614.342 307.164
internal_count=40000 19989
cat_boundaries=0 1
cat_threshold=1
is_linear=0
shrinkage=0.05


Tree=70
num_leaves=5
num_cat=1
split_feature=1 0 6 0
split_gain=602.573 5.68434e-14 3.55271e-15 1.11022e-16
threshold=0 4868.8800000000001 14.225000000000003 4928.3000000000002
decision_type=1 2 2 2
left_child=-1 -2 -3 -4
right_child=1 2 3 -5
leaf_value=-0.050752805701841319 0.050753628266930029 0.050753628266930043 0.0507536282669298 0.050753628266929897
leaf_weight=292.41665645502508 283.29040386527777 8.3380940929055178 0.39496235176920969 0.38033411651849747
leaf_count=20011 19366 570 27 26
internal_value=-7.04939e-07 0.0507536 0.0507536 0.0507536
internal_weight=584.82 292.404 9.11339 0.775296
internal_count=40000 19989 623 53
cat_boundaries=0 1
cat_threshold=1
is_linear=0
shrinkage=0.05


Tree=71
num_leaves=4
num_cat=1
split_feature=1 0 0
split_gain=572.754 5.68434e-14 3.55271e-15
threshold=0 4563.1450000000013 4630.9300000000012
decision_type=1 2 2
left_child=-1 -2 -3
right_child=1 2 -4
leaf_value=-0.05071555117563277 0.050716333700539899 0.050716333700539851 0.050716333700539899
leaf_weight=278.35450518783182 250.11693723686039 4.3445320352911976 23.881001411937177
leaf_count=20011 17962 312 1715
internal_value=-7.05099e-07 0.0507163 0.0507163
internal_weight=556.697 278.342 28.2255
internal_count=40000 19989 2027
cat_boundaries=0 1
cat_threshold=1
is_linear=0
shrinkage=0.05


Tree=72
num_leaves=6
num_cat=1
split_feature=1 6 0 0 5
split_gain=544.43 1.13687e-13 5.68434e-14 3.55271e-15 4.44089e-16
threshold=0 14.695000000000002 296.68000000000006 4897.3750000000009 145274.00000000003
decision_type=1 2 2 2 2
left_child=2 -2 -1 -3 -4
right_child=1 3 4 -5 -6
leaf_value=-0.050680168324427489 0.050680907373410217 0.050680907373410224 -0.050680168324427483 0.050680907373409884 -0.050680168324427378
leaf_weight=261.68874624744058 256.57097993791103 8.1118685603141749 2.8599862977862354 0.26509374380111772 0.41046099644154299
leaf_count=19764 19357 612 216 20 31
internal_value=-7.06554e-07 0.0506809 -0.0506802 0.0506809 -0.0506802
internal_weight=529.907 264.948 264.959 8.37696 3.27045
internal_count=40000 19989 20011 632 247
cat_boundaries=0 1
cat_threshold=1
is_linear=0
shrinkage=0.05


Tree=73
num_leaves=3
num_cat=1
split_feature=1 7
split_gain=517.526 5.68434e-14
threshold=0 9.9650000000000016
decision_type=1 2
left_child=-1 -2
right_child=1 -3
leaf_value=-0.050646557314152366 0.050647261255099101 0.050647261255099101
leaf_weight=252.20002687815577 249.7923737661913 2.3971185926347962
leaf_count=20011 19799 190
internal_value=-7.05825e-07 0.0506473
internal_weight=504.39 252.189
internal_count=40000 19989
cat_boundaries=0 1
cat_threshold=1
is_linear=0
shrinkage=0.05


Tree=74
num_leaves=7
num_cat=1
split_feature=1 0 0 0 0 6
split_gain=491.967 2.84217e-14 2.84217e-14 2.84217e-14 2.84217e-14 2.84217e-14
threshold=0 294.0750000000001 255.06500000000003 4966.2200000000003 4405.1000000000013 11.345000000000001
decision_type=1 2 2 2 2 2
left_child=1 2 -1 4 5 -2
right_child=3 -3 -4 -5 -6 -7
leaf_value=-0.050614625010112282 0.050615292980777139 -0.050614625010112282 -0.050614625010112282 0.050615292980777139 0.050615292980777139 0.050615292980777139
leaf_weight=203.13659060373902 129.6917125582695 4.8582921456545582 32.0527323782444 1.8613162450492371 31.846520528197289 76.63819532841444
leaf_count=16934 10800 405 2672 155 2652 6382
internal_value=-7.06649e-07 -0.0506146 -0.0506146 0.0506153 0.0506153 0.0506153
internal_weight=480.085 240.048 235.189 240.038 238.176 206.33
internal_count=40000 20011 19606 19989 19834 17182
cat_boundaries=0 1
cat_threshold=1
is_linear=0
shrinkage=0.05


Tree=75
num_leaves=10
num_cat=1
split_feature=1 0 0 0 5 5 5 5 5
split_gain=467.686 5.68434e-14 2.84217e-14 3.55271e-15 3.55271e-15 4.44089e-16 4.44089e-16 4.44089e-16 1.11022e-16
threshold=0 4767.6950000000006 265.72000000000008 296.68000000000006 115.50000000000001 150080.50000000003 134361.50000000003 91079.000000000015 120828.50000000001
decision_type=1 2 2 2 2 2 2 2 2
left_child=2 -2 -1 -4 -3 6 7 -5 -9
right_child=1 4 3 5 -6 -7 -8 8 -10
leaf_value=-0.050584288583581861 0.050584924695345618 0.050584924695345618 -0.050584288583581855 -0.05058428858358182 0.050584924695345423 -0.050584288583581695 -0.050584288583581688 -0.050584288583581771 -0.050584288583581653
leaf_weight=202.31654416769743 215.99498707987368 11.978132419288155 23.337190534919504 1.5299332346767189 0.49146917369216758 0.27401789277791966 0.26260048057883967 0.51378354895859946 0.2397656561806798
leaf_count=17720 18898 1048 2044 134 43 24 23 45 21
internal_value=-7.056e-07 0.0505849 -0.0505843 -0.0505843 0.0505849 -0.0505843 -0.0505843 -0.0505843 -0.0505843
internal_weight=456.938 228.465 228.474 26.1573 12.4696 2.8201 2.54608 2.28348 0.753549
internal_count=40000 19989 20011 2291 1091 247 223 200 66
cat_boundaries=0 1
cat_threshold=1
is_linear=0
shrinkage=0.05


Tree=76
num_leaves=9
num_cat=1
split_feature=1 0 0 0 0 5 5 5
split_gain=444.617 2.84217e-14 2.84217e-14 2.84217e-14 1.42109e-14 3.55271e-15 1.77636e-15 1.77636e-15
threshold=0 186.66000000000003 4597.0800000000008 3286.0450000000005 285.00500000000005 55.500000000000007 162697.50000000003 145274.00000000003
decision_type=1 2 2 2 2 2 2 2
left_child=1 -1 3 -2 -3 -4 7 -6
right_child=2 4 5 -5 6 -7 -8 -9
leaf_value=-0.05055546661286682 0.050556072379561029 -0.05055546661286682 0.050556072379561015 0.050556072379561029 -0.050555466612866841 0.050556072379561029 -0.050555466612866688 -0.050555466612866744
leaf_weight=132.49662521667778 128.85156956501305 73.719109773635864 9.2572972308844346 68.238572889938951 9.3670213185250706 11.095702908933161 0.68459668569266874 1.1844609323889024
leaf_count=12193 11845 6784 851 6273 862 1020 63 109
internal_value=-7.05144e-07 -0.0505555 0.0505561 0.0505561 -0.0505555 0.0505561 -0.0505555 -0.0505555
internal_weight=434.895 217.452 217.443 197.09 84.9552 20.353 11.2361 10.5515
internal_count=40000 20011 19989 18118 7818 1871 1034 971
cat_boundaries=0 1
cat_threshold=1
is_linear=0
shrinkage=0.05


Tree=77
num_leaves=9
num_cat=1
split_feature=1 0 0 0 5 5 5 6
split_gain=422.698 2.84217e-14 2.84217e-14 3.55271e-15 1.77636e-15 1.77636e-15 2.22045e-16 1.11022e-16
threshold=0 268.09500000000008 4732.3550000000005 270.42500000000007 114.50000000000001 106.50000000000001 107924.50000000001 11.415000000000001
decision_type=1 2 2 2 2 2 2 2
left_child=1 -1 -2 6 5 -4 -3 -6
right_child=2 3 4 -5 7 -7 -8 -9
leaf_value=-0.05052808487611922 0.050528658482940816 -0.050528084876119039 0.050528658482940837 -0.05052808487611922 0.050528658482940629 0.050528658482940685 -0.050528084876119143 0.05052865848294058
leaf_weight=184.88578300271183 194.037407848984 0.98249982576817518 11.564389316365117 20.446338479407132 0.46588855795562345 0.66259706020355302 0.64121041260659695 0.21741466037929058
leaf_count=17877 18742 95 1117 1977 45 64 62 21
internal_value=-7.0621e-07 -0.0505281 0.0505287 -0.0505281 0.0505287 0.0505287 -0.0505281 0.0505287
internal_weight=413.904 206.956 206.948 22.07 12.9103 12.227 1.62371 0.683303
internal_count=40000 20011 19989 2134 1247 1181 157 66
cat_boundaries=0 1
cat_threshold=1
is_linear=0
shrinkage=0.05


Tree=78
num_leaves=16
num_cat=1
split_feature=1 0 0 0 5 5 5 7 5 5 5 5 5 5 6
split_gain=401.87 2.84217e-14 2.84217e-14 1.77636e-15 1.77636e-15 1.77636e-15 1.77636e-15 1.77636e-15 4.44089e-16 2.22045e-16 1.11022e-16 1.11022e-16 1.11022e-16 1.11022e-16 5.55112e-17
threshold=0 282.52000000000004 4928.3000000000002 298.79500000000007 166465.00000000003 160293.00000000003 138997.50000000003 1.9550000000000003 29.500000000000004 154894.50000000003 22.500000000000004 106520.00000000001 145274.00000000003 148801.50000000003 0.9850000000000001
decision_type=1 2 2 2 2 2 2 2 2 2 2 2 2 2 2
left_child=1 -1 -2 4 5 6 7 -3 10 12 -4 -5 -8 -14 -6
right_child=2 3 8 11 14 -7 9 -9 -10 -11 -12 -13 13 -15 -16
leaf_value=-0.050502068937326686 0.050502609197187333 -0.050502068937326741 0.050502609197187291 -0.050502068937326533 -0.050502068937326318 -0.050502068937326478 -0.050502068937326478 -0.050502068937326311 0.050502609197187312 -0.050502068937326554 0.050502609197187076 -0.050502068937326533 -0.050502068937326429 -0.050502068937326554 -0.050502068937326429
leaf_weight=185.23874374106526 193.88940138556063 8.3957836562767518 0.59118630364537184 0.57087391801178533 0.24606634397059757 0.42323411162942726 0.39370615035295553 0.2362236902117737 2.2760672690346837 0.38386349659413099 0.19706210121512413 0.31496492028236389 0.19685307517647743 0.36417818907648325 0.19685307517647743
leaf_count=18820 19678 853 60 58 25 43 40 24 231 39 20 32 20 37 20
internal_value=-7.07738e-07 -0.0505021 0.0505026 -0.0505021 -0.0505021 -0.0505021 -0.0505021 -0.0505021 0.0505026 -0.0505021 0.0505026 -0.0505021 -0.0505021 -0.0505021 -0.0505021
internal_weight=393.915 196.961 196.954 11.7226 10.8368 10.3938 9.97061 8.63201 3.06432 1.3386 0.788248 0.885839 0.954737 0.561031 0.442919
internal_count=40000 20011 19989 1191 1101 1056 1013 877 311 136 80 90 97 57 45
cat_boundaries=0 1
cat_threshold=1
is_linear=0
shrinkage=0.05


Tree=79
num_leaves=4
num_cat=1
split_feature=1 0 5
split_gain=382.079 2.84217e-14 2.22045e-16
threshold=0 4966.2200000000003 95.500000000000014
decision_type=1 2 2
left_child=-1 -2 -3
right_child=1 2 -4
leaf_value=-0.050477339118273817 0.050477855542679341 0.050477855542679341 0.050477855542679209
leaf_weight=187.44488826859742 185.98428463190794 1.134622287005185 0.31881948560476292
leaf_count=20011 19834 121 34
internal_value=-7.06126e-07 0.0504779 0.0504779
internal_weight=374.883 187.438 1.45344
internal_count=40000 19989 155
cat_boundaries=0 1
cat_threshold=1
is_linear=0
shrinkage=0.05


Tree=80
num_leaves=4
num_cat=1
split_feature=1 0 7
split_gain=363.271 2.84217e-14 7.10543e-15
threshold=0 272.85000000000008 1.9750000000000003
decision_type=1 2 2
left_child=1 -1 -3
right_child=-2 2 -4
leaf_value=-0.050453839962489248 0.050454333927270049 -0.050453839962489248 -0.050453839962488901
leaf_weight=162.16893303394318 178.37731156591326 15.95659576356411 0.25851467996835786
leaf_count=18192 19989 1790 29
internal_value=-7.05061e-07 -0.0504538 -0.0504538
internal_weight=356.761 178.384 16.2151
internal_count=40000 20011 1819
cat_boundaries=0 1
cat_threshold=1
is_linear=0
shrinkage=0.05


Tree=81
num_leaves=6
num_cat=1
split_feature=1 0 0 5 5
split_gain=345.397 2.84217e-14 2.84217e-14 2.22045e-16 1.11022e-16
threshold=0 127.89500000000002 4966.2200000000003 83.500000000000014 69.500000000000014
decision_type=1 2 2 2 2
left_child=1 -1 -2 4 -4
right_child=2 -3 3 -5 -6
leaf_value=-0.050431512706984587 0.050431975544982612 -0.050431512706984587 0.050431975544982625 0.050431975544982494 0.050431975544982327
leaf_weight=68.450966039672494 168.43476919829845 101.30641175433993 0.76430015265941509 0.3821500763297081 0.16984447836875916
leaf_count=8069 19834 11942 90 45 20
internal_value=-7.06468e-07 -0.0504315 0.050432 0.050432 0.050432
internal_weight=339.508 169.757 169.751 1.31629 0.934145
internal_count=40000 20011 19989 155 110
cat_boundaries=0 1
cat_threshold=1
is_linear=0
shrinkage=0.05


Tree=82
num_leaves=3
num_cat=1
split_feature=1 0
split_gain=328.41 2.84217e-14
threshold=0 4464.5350000000008
decision_type=1 2
left_child=-1 -2
right_child=1 -3
leaf_value=-0.050410292422110259 0.050410732269815975 0.050410732269815975
leaf_weight=161.54448403604329 141.37551994808018 20.163022880442441
leaf_count=20011 17494 2495
internal_value=-7.0708e-07 0.0504107
internal_weight=323.083 161.539
internal_count=40000 19989
cat_boundaries=0 1
cat_threshold=1
is_linear=0
shrinkage=0.05


Tree=83
num_leaves=17
num_cat=1
split_feature=1 0 0 0 0 5 5 5 0 5 5 5 5 5 5 5
split_gain=312.265 2.84217e-14 2.84217e-14 2.84217e-14 1.77636e-15 1.77636e-15 1.77636e-15 1.77636e-15 4.44089e-16 4.44089e-16 4.44089e-16 2.22045e-16 1.11022e-16 5.55112e-17 5.55112e-17 5.55112e-17
threshold=0 280.11000000000007 4966.2200000000003 4563.1450000000013 287.20500000000004 116.50000000000001 100.50000000000001 96.500000000000014 285.00500000000005 148801.50000000003 109.50000000000001 100.50000000000001 112.50000000000001 117.50000000000001 98.500000000000014 161539.00000000003
decision_type=1 2 2 2 2 2 2 2 2 2 2 2 2 2 2 2
left_child=1 -1 3 -2 8 6 7 -5 9 -3 -8 -4 -12 -7 -9 -11
right_child=2 4 11 5 -6 13 10 14 -10 15 12 -13 -14 -15 -16 -17
leaf_value=-0.050390122852419429 0.05039054375120007 -0.050390122852419443 0.050390543751200084 0.050390543751200091 -0.050390122852419429 0.050390543751199494 0.050390543751199994 0.05039054375119964 -0.050390122852419374 -0.0503901228524192 0.050390543751199945 0.050390543751199814 0.050390543751199973 0.050390543751199883 0.050390543751199848 -0.050390122852419117
leaf_weight=143.37039673374966 138.13211054261774 2.0587936732918011 0.99973134230822214 11.566122606396668 6.7371718338690698 0.15380482189357358 1.1458459231071181 0.20763650955632407 1.2060843533836307 0.19205164862796653 0.36913157254457463 0.19225602736696601 0.46910470677539706 0.26146819721907377 0.22301699174568057 0.16132338484749198
leaf_count=18663 17962 268 130 1504 877 20 149 27 157 25 48 25 61 34 29 21
internal_value=-7.06141e-07 -0.0503901 0.0503905 0.0503905 -0.0503901 0.0503905 0.0503905 0.0503905 -0.0503901 -0.0503901 0.0503905 0.0503905 0.0503905 0.0503905 0.0503905 -0.0503901
internal_weight=307.446 153.726 153.72 152.528 10.3554 14.3961 13.9809 11.9968 3.61825 2.41217 1.98408 1.19199 0.838236 0.415273 0.430654 0.353375
internal_count=40000 20011 19989 19834 1348 1872 1818 1560 471 314 258 155 109 54 56 46
cat_boundaries=0 1
cat_threshold=1
is_linear=0
shrinkage=0.05


Tree=84
num_leaves=3
num_cat=1
split_feature=1 0
split_gain=296.92 2.84217e-14
threshold=0 294.0750000000001
decision_type=1 2
left_child=1 -1
right_child=-2 -3
leaf_value=-0.050370949576898486 0.050371350509879946 -0.050370949576898486
leaf_weight=143.32218382507563 146.27751624584198 2.9605980031192294
leaf_count=19606 19989 405
internal_value=-7.06128e-07 -0.0503709
internal_weight=292.56 146.283
internal_count=40000 20011
cat_boundaries=0 1
cat_threshold=1
is_linear=0
shrinkage=0.05


Tree=85
num_leaves=6
num_cat=1
split_feature=1 0 0 5 6
split_gain=282.334 2.84217e-14 2.84217e-14 8.88178e-16 2.22045e-16
threshold=0 296.68000000000006 4833.0900000000011 116.50000000000001 0.60500000000000009
decision_type=1 2 2 2 2
left_child=1 -1 -2 -4 -3
right_child=2 4 3 -5 -6
leaf_value=-0.050352727729645899 0.050353108128585435 -0.050352727729645899 0.050353108128585435 0.050353108128585157 -0.050352727729645864
leaf_weight=137.47942162491381 133.76808016560972 0.59126446256413956 5.2643762938678256 0.16015959624201048 1.1268805051222441
leaf_count=19764 19210 85 756 23 162
internal_value=-7.05213e-07 -0.0503527 0.0503531 0.0503531 -0.0503527
internal_weight=278.39 139.198 139.193 5.42454 1.71814
internal_count=40000 20011 19989 779 247
cat_boundaries=0 1
cat_threshold=1
is_linear=0
shrinkage=0.05


Tree=86
num_leaves=4
num_cat=1
split_feature=1 0 0
split_gain=268.47 2.84217e-14 2.84217e-14
threshold=0 298.79500000000007 4868.8800000000001
decision_type=1 2 2
left_child=1 -1 -2
right_child=2 -3 -4
leaf_value=-0.050335403065137285 0.050335770004925728 -0.050335403065137285 0.050335770004925728
leaf_weight=131.85753252403811 128.32052594888955 0.59571195859461923 4.1280433577485374
leaf_count=19921 19366 90 623
internal_value=-7.04888e-07 -0.0503354 0.0503358
internal_weight=264.902 132.453 132.449
internal_count=40000 20011 19989
cat_boundaries=0 1
cat_threshold=1
is_linear=0
shrinkage=0.05


Tree=87
num_leaves=11
num_cat=1
split_feature=1 0 0 5 6 0 7 5 6 6
split_gain=255.291 1.42109e-14 1.42109e-14 3.55271e-15 3.55271e-15 1.77636e-15 1.77636e-15 4.44089e-16 1.11022e-16 1.11022e-16
threshold=0 253.08000000000001 4531.0600000000004 142443.00000000003 14.875000000000002 4966.2200000000003 9.7850000000000019 153535.00000000003 13.435 10.945000000000002
decision_type=1 2 2 2 2 2 2 2 2 2
left_child=1 -1 -2 -3 5 6 -4 -5 9 -7
right_child=2 3 4 7 -6 8 -8 -9 -10 -11
leaf_value=-0.050318938920248607 0.050319286278234503 -0.050318938920248593 0.050319286278234523 -0.050318938920248579 0.050319286278233982 0.050319286278234357 0.050319286278234357 -0.050318938920248579 0.05031928627823417 0.050319286278234281
leaf_weight=105.6651786477305 112.26554977707565 16.627291627228264 12.023497889749699 1.4674844504334026 0.17023305874317962 0.59896816965192634 0.59896816965192634 2.2736561656929553 0.1513182744383812 0.22067248355597258
leaf_count=16777 17806 2640 1907 233 27 95 95 361 24 35
internal_value=-7.05302e-07 -0.0503189 0.0503193 -0.0503189 0.0503193 0.0503193 0.0503193 -0.0503189 0.0503193 0.0503193
internal_weight=252.063 126.034 126.029 20.3684 13.7637 13.5934 12.6225 3.74114 0.970959 0.819641
internal_count=40000 20011 19989 3234 2183 2156 2002 594 154 130
cat_boundaries=0 1
cat_threshold=1
is_linear=0
shrinkage=0.05


Tree=88
num_leaves=6
num_cat=1
split_feature=1 0 0 5 5
split_gain=242.762 2.84217e-14 1.42109e-14 3.55271e-15 4.44089e-16
threshold=0 4046.5250000000005 294.0750000000001 12.500000000000002 143914.00000000003
decision_type=1 2 2 2 2
left_child=2 -2 -1 -3 -4
right_child=1 3 4 -5 -6
leaf_value=-0.05030328881725054 0.050303617861883212 0.050303617861883157 -0.050303288817250526 0.050303617861883212 -0.050303288817250429
leaf_weight=117.49612404312938 92.730470048263669 2.771655377000573 2.0375743228942151 24.416964035481215 0.38953626761212934
leaf_count=19606 15457 462 340 4070 65
internal_value=-7.04868e-07 0.0503036 -0.0503033 0.0503036 -0.0503033
internal_weight=239.842 119.919 119.923 27.1886 2.42711
internal_count=40000 19989 20011 4532 405
cat_boundaries=0 1
cat_threshold=1
is_linear=0
shrinkage=0.05


Tree=89
num_leaves=5
num_cat=1
split_feature=1 0 7 6
split_gain=230.853 1.42109e-14 1.42109e-14 1.77636e-15
threshold=0 4767.6950000000006 1.5950000000000004 6.495000000000001
decision_type=1 2 2 2
left_child=2 -2 -1 -3
right_child=1 3 -4 -5
leaf_value=-0.050288409046458461 0.050288721828554719 0.050288721828554719 -0.050288409046458461 0.050288721828554719
leaf_weight=90.340498632285744 107.87572701275349 0.9875384047627439 23.76691272482276 5.2402326911687851
leaf_count=15843 18898 173 4168 918
internal_value=-7.05933e-07 0.0502887 -0.0502884 0.0502887
internal_weight=228.211 114.103 114.107 6.22777
internal_count=40000 19989 20011 1091
cat_boundaries=0 1
cat_threshold=1
is_linear=0
shrinkage=0.05


Tree=90
num_leaves=9
num_cat=1
split_feature=1 0 0 0 6 5 5 5
split_gain=219.531 1.42109e-14 1.42109e-14 1.42109e-14 1.42109e-14 2.22045e-16 2.22045e-16 5.55112e-17
threshold=0 296.68000000000006 253.08000000000001 4897.3750000000009 11.275 123213.50000000001 110278.00000000001 151248.50000000003
decision_type=1 2 2 2 2 2 2 2
left_child=1 2 -1 4 -2 6 -3 -7
right_child=3 5 -4 -5 -6 7 -8 -9
leaf_value=-0.050274266716743489 0.050274561789541532 -0.050274266716743503 -0.050274266716743489 0.050274561789541532 0.050274561789541532 -0.050274266716743281 -0.050274266716743093 -0.050274266716743045
leaf_weight=91.025640565901995 66.00246511772275 0.86809933185577282 16.206329401582479 2.5364673477597526 40.029473989270627 0.23330169543623924 0.1247892789542675 0.11393803730607033
leaf_count=16777 12152 160 2987 467 7370 43 23 21
internal_value=-7.07237e-07 -0.0502743 -0.0502743 0.0502746 0.0502746 -0.0502743 -0.0502743 -0.0502743
internal_weight=217.141 108.572 107.232 108.568 106.032 1.34013 0.992889 0.34724
internal_count=40000 20011 19764 19989 19522 247 183 64
cat_boundaries=0 1
cat_threshold=1
is_linear=0
shrinkage=0.05


Tree=91
num_leaves=5
num_cat=1
split_feature=1 0 0 5
split_gain=208.767 2.84217e-14 1.42109e-14 8.88178e-16
threshold=0 4013.1800000000007 277.27500000000003 10009.500000000002
decision_type=1 2 2 2
left_child=2 -2 -1 -4
right_child=1 -3 3 -5
leaf_value=-0.050260813654894668 0.050261098876066945 0.050261098876066945 -0.050260813654894668 -0.050260813654894654
leaf_weight=95.534567933529615 79.068316100165248 24.23211334599182 0.3303908109664907 7.4389556031674147
leaf_count=18506 15300 4689 64 1441
internal_value=-7.05167e-07 0.0502611 -0.0502608 -0.0502608
internal_weight=206.604 103.3 103.304 7.76935
internal_count=40000 19989 20011 1505
cat_boundaries=0 1
cat_threshold=1
is_linear=0
shrinkage=0.05


Tree=92
num_leaves=3
num_cat=1
split_feature=1 0
split_gain=198.533 1.42109e-14
threshold=0 4966.2200000000003
decision_type=1 2
left_child=-1 -2
right_child=1 -3
leaf_value=-0.05024803240267816 0.050248298344024257 0.050248298344024257
leaf_weight=98.290093330200762 97.524663751013577 0.76214192202314635
leaf_count=20011 19834 155
internal_value=-7.07407e-07 0.0502483
internal_weight=196.577 98.2868
internal_count=40000 19989
cat_boundaries=0 1
cat_threshold=1
is_linear=0
shrinkage=0.05


Tree=93
num_leaves=4
num_cat=1
split_feature=1 0 5
split_gain=188.804 1.42109e-14 1.42109e-14
threshold=0 298.79500000000007 34.500000000000007
decision_type=1 2 2
left_child=1 -1 -2
right_child=2 -3 -4
leaf_value=-0.050235882004194925 0.050236128155189443 -0.050235882004194925 0.050236128155189443
leaf_weight=93.097873008809984 27.0314602246508 0.42060180567204852 66.483918527606875
leaf_count=19921 5778 90 14211
internal_value=-7.08505e-07 -0.0502359 0.0502361
internal_weight=187.034 93.5185 93.5154
internal_count=40000 20011 19989
cat_boundaries=0 1
cat_threshold=1
is_linear=0
shrinkage=0.05


Tree=94
num_leaves=8
num_cat=1
split_feature=1 0 0 5 5 5 5
split_gain=179.553 1.42109e-14 1.42109e-14 2.22045e-16 2.22045e-16 1.11022e-16 1.11022e-16
threshold=0 294.0750000000001 4966.2200000000003 97495.500000000015 60580.000000000007 52006.500000000007 163899.00000000003
decision_type=1 2 2 2 2 2 2
left_child=1 -1 -2 4 5 -3 -5
right_child=2 3 -4 6 -6 -7 -8
leaf_value=-0.050224320067595023 0.050224562072312851 -0.05022432006759503 0.050224562072312851 -0.050224320067594953 -0.050224320067594842 -0.050224320067594544 -0.050224320067594454
leaf_weight=87.176681774668396 88.284618555568159 0.5691428780555714 0.68993223132565518 0.74700002744793892 0.28901786776259542 0.10671428963541985 0.088928574696183205
leaf_count=19606 19834 128 155 168 65 24 20
internal_value=-7.07254e-07 -0.0502243 0.0502246 -0.0502243 -0.0502243 -0.0502243 -0.0502243
internal_weight=177.952 88.9775 88.9746 1.8008 0.964875 0.675857 0.835929
internal_count=40000 20011 19989 405 217 152 188
cat_boundaries=0 1
cat_threshold=1
is_linear=0
shrinkage=0.05


Tree=95
num_leaves=6
num_cat=1
split_feature=1 0 5 5 6
split_gain=170.758 1.42109e-14 1.42109e-14 8.88178e-16 2.22045e-16
threshold=0 280.11000000000007 95.500000000000014 130621.50000000001 0.42500000000000004
decision_type=1 2 2 2 2
left_child=1 -1 -2 -3 -5
right_child=2 3 -4 4 -6
leaf_value=-0.050213332529066436 0.050213561287443878 -0.050213332529066436 0.050213561287443878 -0.05021333252906629 -0.050213332529066394
leaf_weight=78.953373298980296 67.73448387440294 4.3023940762504926 16.918798491824418 0.30459427088499058 1.0956932799890635
leaf_count=18663 15994 1017 3995 72 259
internal_value=-7.07901e-07 -0.0502133 0.0502136 -0.0502133 -0.0502133
internal_weight=169.309 84.6561 84.6533 5.70268 1.40029
internal_count=40000 20011 19989 1348 331
cat_boundaries=0 1
cat_threshold=1
is_linear=0
shrinkage=0.05


Tree=96
num_leaves=3
num_cat=1
split_feature=1 5
split_gain=162.395 1.42109e-14
threshold=0 34099.000000000007
decision_type=1 2
left_child=1 -1
right_child=-2 -3
leaf_value=-0.050202885247692043 0.050203107946248077 -0.050202885247692043
leaf_weight=14.276566511020063 80.541046025231481 66.267096430063248
leaf_count=3547 19989 16464
internal_value=-7.04228e-07 -0.0502029
internal_weight=161.085 80.5437
internal_count=40000 20011
cat_boundaries=0 1
cat_threshold=1
is_linear=0
shrinkage=0.05


Tree=97
num_leaves=12
num_cat=1
split_feature=1 0 0 0 0 0 0 5 0 5 5
split_gain=154.444 1.42109e-14 1.42109e-14 1.42109e-14 1.77636e-15 1.77636e-15 4.44089e-16 4.44089e-16 1.11022e-16 5.55112e-17 5.55112e-17
threshold=0 250.79500000000004 4868.8800000000001 4597.0800000000008 296.68000000000006 282.52000000000004 285.00500000000005 104.50000000000001 298.79500000000007 112.50000000000001 133121.00000000003
decision_type=1 2 2 2 2 2 2 2 2 2 2
left_child=1 -1 3 -2 5 -3 -7 -4 -6 -9 -10
right_child=2 4 7 -5 8 6 -8 9 10 -11 -12
leaf_value=-0.050192950986983668 0.050193158075313972 -0.050192950986983689 0.050193158075313965 0.050193158075313972 -0.050192950986983523 -0.050192950986983488 -0.050192950986983655 0.050193158075313674 -0.050192950986983481 0.050193158075313528 -0.050192950986983044
leaf_weight=63.640931075904518 69.455335581209511 8.4285269449464923 2.131425465457141 4.7842068001627913 0.60121705150231797 0.60121705150231841 3.0137440734542906 0.14567296346649516 0.26422915002331138 0.11117147211916745 0.080417567398399115
leaf_count=16619 18118 2201 556 1248 157 157 787 38 69 29 21
internal_value=-7.05604e-07 -0.050193 0.0501932 0.0501932 -0.050193 -0.050193 -0.050193 0.0501932 -0.050193 0.0501932 -0.050193
internal_weight=153.258 76.6303 76.6278 74.2395 12.9894 12.0435 3.61496 2.38827 0.945864 0.256844 0.344647
internal_count=40000 20011 19989 19366 3392 3145 944 623 247 67 90
cat_boundaries=0 1
cat_threshold=1
is_linear=0
shrinkage=0.05


Tree=98
num_leaves=3
num_cat=1
split_feature=1 0
split_gain=146.883 1.42109e-14
threshold=0 106.61000000000001
decision_type=1 2
left_child=1 -1
right_child=-2 -3
leaf_value=-0.05018350688788295 0.050183703621801828 -0.05018350688788295
leaf_weight=24.209820788819343 72.904017061460763 48.696533433161676
leaf_count=6645 19989 13366
internal_value=-7.06014e-07 -0.0501835
internal_weight=145.81 72.9064
internal_count=40000 20011
cat_boundaries=0 1
cat_threshold=1
is_linear=0
shrinkage=0.05


Tree=99
num_leaves=4
num_cat=1
split_feature=1 0 0
split_gain=139.694 1.42109e-14 1.42109e-14
threshold=0 282.52000000000004 2787.5450000000005
decision_type=1 2 2
left_child=1 -1 -2
right_child=2 -3 -4
leaf_value=-0.05017452396174632 0.050174710050093732 -0.05017452396174632 0.050174710050093732
leaf_weight=65.23449026979506 32.92969785630703 4.1282825670205048 36.430863834917545
leaf_count=18820 9490 1191 10499
internal_value=-7.06701e-07 -0.0501745 0.0501747
internal_weight=138.723 69.3628 69.3606
internal_count=40000 20011 19989
cat_boundaries=0 1
cat_threshold=1
is_linear=0
shrinkage=0.05


end of trees

feature_importances:
amount=204
time_since_last_transaction=131
transaction_type=100
spending_deviation_score=37
velocity_score=22
geo_anomaly_score=1

parameters:
[boosting: gbdt]
[objective: binary]
[metric: auc]
[tree_learner: serial]
[device_type: cpu]
[data_sample_strategy: bagging]
[data: ]
[valid: ]
[num_iterations: 100]
[learning_rate: 0.05]
[num_leaves: 31]
[num_threads: 0]
[seed: 0]
[deterministic: 0]
[force_col_wise: 0]
[force_row_wise: 0]
[histogram_pool_size: -1]
[max_depth: -1]
[min_data_in_leaf: 20]
[min_sum_hessian_in_leaf: 0.001]
[bagging_fraction: 1]
[pos_bagging_fraction: 1]
[neg_bagging_fraction: 1]
[bagging_freq: 0]
[bagging_seed: 3]
[bagging_by_query: 0]
[feature_fraction: 1]
[feature_fraction_bynode: 1]
[feature_fraction_seed: 2]
[extra_trees: 0]
[extra_seed: 6]
[early_stopping_round: 0]
[early_stopping_min_delta: 0]
[first_metric_only: 0]
[max_delta_step: 0]
[lambda_l1: 0]
[lambda_l2: 0]
[linear_lambda: 0]
[min_gain_to_split: 0]
[drop_rate: 0.1]
[max_drop: 50]
[skip_drop: 0.5]
[xgboost_dart_mode: 0]
[uniform_drop: 0]
[drop_seed: 4]
[top_rate: 0.2]
[other_rate: 0.1]
[min_data_per_group: 100]
[max_cat_threshold: 32]
[cat_l2: 10]
[cat_smooth: 10]
[max_cat_to_onehot: 4]
[top_k: 20]
[monotone_constraints: ]
[monotone_constraints_method: basic]
[monotone_penalty: 0]
[feature_contri: ]
[forcedsplits_filename: ]
[refit_decay_rate: 0.9]
[cegb_tradeoff: 1]
[cegb_penalty_split: 0]
[cegb_penalty_feature_lazy: ]
[cegb_penalty_feature_coupled: ]
[path_smooth: 0]
[interaction_constraints: ]
[verbosity: -1]
[saved_feature_importance_type: 0]
[use_quantized_grad: 0]
[num_grad_quant_bins: 4]
[quant_train_renew_leaf: 0]
[stochastic_rounding: 1]
[linear_tree: 0]
[max_bin: 255]
[max_bin_by_feature: ]
[min_data_in_bin: 3]
[bin_construct_sample_cnt: 200000]
[data_random_seed: 1]
[is_enable_sparse: 1]
[enable_bundle: 1]
[use_missing: 1]
[zero_as_missing: 0]
[feature_pre_filter: 1]
[pre_partition: 0]
[two_round: 0]
[header: 0]
[label_column: ]
[weight_column: ]
[group_column: ]
[ignore_column: ]
[categorical_feature: 1,2,3,4,9]
[forcedbins_filename: ]
[precise_float_parser: 0]
[parser_config_file: ]
[objective_seed: 5]
[num_class: 1]
[is_unbalance: 0]
[scale_pos_weight: 1]
[sigmoid: 1]
[boost_from_average: 1]
[reg_sqrt: 0]
[alpha: 0.9]
[fair_c: 1]
[poisson_max_delta_step: 0.7]
[tweedie_variance_power: 1.5]
[lambdarank_truncation_level: 30]
[lambdarank_norm: 1]
[label_gain: ]
[lambdarank_position_bias_regularization: 0]
[eval_at: ]
[multi_error_top_k: 1]
[auc_mu_weights: ]
[num_machines: 1]
[local_listen_port: 12400]
[time_out: 120]
[machine_list_filename: ]
[machines: ]
[gpu_platform_id: -1]
[gpu_device_id: -1]
[gpu_use_dp: 0]
[num_gpu: 1]

end of parameters

pandas_categorical:[]
