{"all_layers": [{"name": "dense_10", "activation": "relu", "w": [[0.09966760873794556, -0.04521578922867775, 0.22557371854782104, -0.18714678287506104, 0.052383903414011, 0.013928833417594433, 0.14079299569129944, 0.3476145267486572, -0.3641490340232849, -0.6583391427993774, 0.06847032904624939, -0.5451965928077698, 0.21727952361106873, 0.19124247133731842, -0.12222680449485779, 0.20356713235378265, -0.33797046542167664, -0.34356218576431274, 0.30637747049331665, -0.3671724498271942, -0.3432604670524597, 0.07953783124685287, -0.16785800457000732, 0.023342035710811615, 0.1714719831943512, 0.11171580106019974, 0.16605547070503235, 0.19931796193122864, 0.0020424064714461565, -0.7389209270477295, -0.2794555127620697, 0.04720757156610489], [-0.5694511532783508, 0.0872432291507721, -0.3670099079608917, 0.12723203003406525, 0.08562152087688446, -0.04708520695567131, 0.0892038494348526, 0.06375008076429367, -0.32141348719596863, 0.116411492228508, -0.4760875403881073, 0.25394105911254883, -0.3406177759170532, -0.157850444316864, -0.14348351955413818, 0.11014506965875626, -0.05212804675102234, -0.8962387442588806, -0.20191256701946259, -0.026642292737960815, -0.11028233915567398, 0.08107572793960571, 0.14295363426208496, -0.07818792015314102, 0.24131296575069427, 0.3690471351146698, -0.09773489087820053, -0.27503108978271484, -0.49022534489631653, -0.1541178822517395, 0.2526397705078125, 0.07443293929100037], [-0.03704732283949852, -0.7110558152198792, -0.10926079750061035, 0.09154928475618362, -0.13296078145503998, 0.009491311386227608, 0.10542268306016922, 0.12099700421094894, -0.2972947359085083, -0.15921713411808014, 0.30728375911712646, -0.16193252801895142, 0.12454304844141006, 0.09852467477321625, -0.17973168194293976, 0.09031164646148682, -0.32248055934906006, 0.09770070016384125, 0.24739132821559906, -0.06880810856819153, -0.16982430219650269, -0.13633881509304047, 0.13552811741828918, 0.07395879924297333, 0.15063095092773438, 0.18236783146858215, 0.07111138850450516, -0.6128415465354919, 0.0626521110534668, -0.32269763946533203, -0.09911376982927322, 0.07835020869970322], [-0.14904141426086426, -0.598059356212616, -0.35799020528793335, 0.08865110576152802, -0.025377783924341202, 0.11941023916006088, -0.05215063318610191, 0.09274520725011826, -0.09426426887512207, -0.7190943956375122, -0.10498329252004623, -0.3348746597766876, -0.018560875207185745, 0.23902320861816406, -0.11846023797988892, -0.09608246386051178, -0.3259800970554352, -0.14477671682834625, 0.11802438646554947, -0.2627323865890503, -0.122877337038517, 0.10855226218700409, -0.13027195632457733, 0.25394588708877563, 0.09849344938993454, -0.15707097947597504, 0.021151265129446983, -0.1773584932088852, 0.1072421595454216, -0.5125997066497803, -0.3209604024887085, 0.03131639212369919], [-0.053426939994096756, -0.3467850089073181, -0.3876747488975525, 0.5068564414978027, 0.277300089597702, 0.4781556725502014, -0.005237521603703499, -0.3419625759124756, -0.1714145541191101, -0.6592994332313538, -0.22628802061080933, -0.7905399203300476, 0.10134560614824295, 0.1894264668226242, -0.1484895646572113, -0.17673063278198242, -0.06372976303100586, -0.08553680032491684, 0.1475699245929718, -0.07090100646018982, 0.10876526683568954, -0.059010665863752365, 0.28898051381111145, 0.16539601981639862, -0.03736714646220207, -0.17974278330802917, -0.6005238890647888, 0.23064082860946655, -0.13168391585350037, 0.3384549021720886, 0.028359370306134224, 0.19211573898792267]], "b": [0.05835564434528351, 0.04129171371459961, 0.0, -9.767518349690363e-05, 0.1298549324274063, -0.01967017911374569, 0.01997874677181244, -0.031086228787899017, 0.0, 0.028591692447662354, -0.16948917508125305, -0.017631415277719498, 0.005546475760638714, -0.02405339479446411, 0.0, 0.0419316440820694, 0.0, 0.037595853209495544, -0.11167586594820023, 0.0, 0.041653744876384735, 0.14439116418361664, 0.11991172283887863, 0.07342098653316498, -0.05606045201420784, -0.08092520385980606, 0.03371230512857437, 0.03399785980582237, 0.04967882111668587, 0.035199087113142014, -0.012876625172793865, 0.013176778331398964]}, {"name": "dense_11", "activation": "relu", "w": [[0.1369158923625946, -0.028531957417726517, 0.23537412285804749, 0.007771265227347612, 0.2046799510717392, 0.14409856498241425, -0.0865892842411995, 0.2504618167877197], [-0.040807850658893585, 0.08373589813709259, -0.025219686329364777, 0.26570743322372437, -0.0620199590921402, 0.24717719852924347, 0.4939337968826294, -0.05059632286429405], [0.06739994138479233, -0.24264995753765106, 0.1622629463672638, -0.007219758816063404, 0.1754331886768341, 0.27838411927223206, 0.1574222892522812, 0.21605625748634338], [0.21148830652236938, -0.1995113641023636, -0.0653747171163559, -0.04157905653119087, -0.2492835819721222, 0.2695963680744171, -0.10374266654253006, 0.25608643889427185], [0.0178682804107666, -0.31157225370407104, -0.20644544064998627, -0.164375901222229, 0.13299886882305145, 0.29513633251190186, 0.02023608237504959, 0.20207683742046356], [0.28664430975914, -0.16080495715141296, -0.12494447082281113, -0.18736176192760468, 0.04299812763929367, -0.5563521981239319, 0.1299780309200287, 0.12127572298049927], [0.3707940876483917, -0.19638597965240479, 0.006197316572070122, -0.23347145318984985, 0.06100337579846382, 0.3036692440509796, -0.09582561999559402, -0.2638503313064575], [0.3054552972316742, 0.2154855728149414, -0.004767080768942833, -0.06852303445339203, 0.14384104311466217, 0.018855443224310875, -0.2082522213459015, -0.18947096168994904], [-0.08119115978479385, -0.021323872730135918, 0.026395948603749275, -0.2343105673789978, -0.15446025133132935, -0.14150451123714447, -0.062370482832193375, -0.1895940750837326], [0.2524923086166382, 0.05692072957754135, 0.11532021313905716, 0.5109680891036987, -0.08168135583400726, 0.33788755536079407, 0.4053974151611328, -0.17571885883808136], [0.5088032484054565, -0.4538443982601166, 0.4039396345615387, 0.29147517681121826, -0.32218244671821594, -0.14518283307552338, 0.14270736277103424, -0.32925647497177124], [-0.059263426810503006, -0.08817421644926071, 0.15210147202014923, 0.17293259501457214, 0.09517154097557068, 0.4379418194293976, 0.24910524487495422, 0.12630893290042877], [0.17025738954544067, -0.04461367428302765, 0.12231296300888062, -0.4611368179321289, 0.1262296885251999, -0.31523817777633667, -0.23630477488040924, 0.027951978147029877], [0.36156025528907776, -0.04529077932238579, 0.07044398039579391, -0.006581115070730448, 0.13735969364643097, -0.2168269008398056, 0.06691402196884155, -0.0029150787740945816], [0.2786567509174347, 0.03246936574578285, 0.1310737282037735, 0.15039654076099396, 0.3355218768119812, 0.34213852882385254, 0.13167133927345276, 0.09671584516763687], [0.2681410014629364, -0.10907453298568726, 0.034531738609075546, -0.14799177646636963, 0.0014065790455788374, 0.21859697997570038, -0.009559839963912964, -0.48533979058265686], [0.14114658534526825, 0.15659886598587036, -0.0013214846840128303, 0.3535956144332886, 0.18579305708408356, 0.275068461894989, -0.14252164959907532, 0.22884424030780792], [0.03499056398868561, 0.22069522738456726, 0.39362257719039917, -0.1493353247642517, -0.20218299329280853, 0.20925664901733398, -0.21492742002010345, 0.023990726098418236], [0.3758457601070404, -0.22367911040782928, 0.023810258135199547, 0.3214470148086548, -0.08645538985729218, -0.4335916340351105, -0.03060702234506607, -0.3465538024902344], [-0.0965588316321373, 0.10685956478118896, -0.07464524358510971, -0.22971303761005402, -0.21073777973651886, -0.3115736246109009, -0.17468875646591187, -0.22213105857372284], [-0.13490547239780426, 0.494910329580307, -0.10799677670001984, 0.32811403274536133, -0.14436595141887665, -0.19518479704856873, -0.0017090238397940993, 0.3758843243122101], [-0.09845181554555893, 0.04813990741968155, -0.3088243007659912, -0.017041239887475967, 0.0939379408955574, 0.3664917051792145, 0.011422041803598404, -0.19766555726528168], [0.005554957315325737, -0.12428119778633118, 0.04624644294381142, -0.0806131660938263, -0.440275102853775, 0.3323999345302582, 0.06993687152862549, -0.0824047178030014], [0.14615514874458313, -0.16130848228931427, 0.04867609217762947, -0.271665096282959, 0.11933650821447372, -0.3318363428115845, -0.4733206331729889, 0.10570774972438812], [0.42456209659576416, 0.04737076908349991, 0.09730634093284607, -0.08275830000638962, 0.01969768851995468, 0.2511177361011505, -0.017897166311740875, -0.0960870012640953], [0.5336402654647827, 0.42729610204696655, 0.20693150162696838, 0.058183059096336365, -0.1335250735282898, 0.1672918051481247, 0.11486867815256119, 0.21908986568450928], [0.15692894160747528, 0.13814353942871094, 0.3159388303756714, -0.08086970448493958, 0.04760018363595009, -0.40538156032562256, 0.13422295451164246, -0.556227445602417], [0.048928648233413696, -0.10727383196353912, -0.03287317976355553, 0.18997521698474884, 0.36212000250816345, -0.1338779479265213, -0.19632378220558167, 0.2997770607471466], [0.13750067353248596, -0.07121468335390091, 0.3390991985797882, -0.042338013648986816, 0.15515509247779846, 0.15025794506072998, -0.1477549970149994, 0.26209625601768494], [-0.07963418960571289, 0.3925218880176544, -0.24343490600585938, 0.20232656598091125, -0.15455955266952515, -0.156936377286911, -0.0016231234185397625, 0.4485401511192322], [0.0433633029460907, -0.04161732271313667, 0.10510765016078949, 0.105007104575634, -0.13424156606197357, 0.3863505423069, 0.20583906769752502, -0.07550085335969925], [0.26418113708496094, -0.4008738696575165, -0.008965195156633854, -0.4455201327800751, 0.05742379277944565, 0.19951578974723816, -0.0803089588880539, 0.008232107385993004]], "b": [0.004674720577895641, 0.22109149396419525, 0.6071614027023315, 0.3959035277366638, 0.3450355529785156, 0.17600883543491364, 0.26568883657455444, 0.2795003354549408]}, {"name": "dense_12", "activation": "relu", "w": [[-0.11511428654193878, -0.0969538539648056, -0.1267140507698059, -0.20913098752498627, 0.019733205437660217, 0.18733152747154236, -0.09168874472379684, -0.4567258059978485, 0.1795981526374817, -0.26617828011512756, -0.010357530787587166, 0.18223963677883148, 0.0754832997918129, -0.05564535781741142, -0.4383229613304138, -0.07362031936645508, -0.024999409914016724, -0.16740471124649048, -0.139606311917305, 0.22521530091762543, -0.2656116783618927, -0.3203376829624176, -0.14661653339862823, -0.1461644023656845, -0.1275053471326828, -0.1106162890791893, -0.35473567247390747, -0.2573038935661316, 0.1203976571559906, -0.12360912561416626, -0.16602979600429535, 0.13506962358951569], [0.09380769729614258, 0.11268060654401779, 0.34888604283332825, 0.35015660524368286, -0.1144791916012764, 0.06735379993915558, 0.4418269693851471, -0.0825127586722374, 0.29290592670440674, 0.0916842669248581, -0.05565693974494934, 0.18082980811595917, 0.38252371549606323, -0.3254814147949219, 0.31895557045936584, -0.06903012096881866, 0.019085776060819626, 0.14894497394561768, -0.04520783945918083, 0.1896858662366867, 0.20354057848453522, 0.11569980531930923, 0.2596554756164551, 0.008710096590220928, -0.19780027866363525, 0.37782689929008484, -0.24008427560329437, -0.09575098752975464, 0.1041986495256424, 0.2620360255241394, 0.057671621441841125, 0.0937594324350357], [0.0069492110051214695, -0.11360765248537064, 0.30138465762138367, 0.1714671105146408, 0.6181795001029968, 0.5632622838020325, 0.3295835554599762, 0.3922801613807678, 0.5663794875144958, -0.433615505695343, 0.21722780168056488, -0.46551427245140076, -0.3365289270877838, -0.2615344822406769, 0.1273883581161499, -0.03429463505744934, -0.10293389856815338, -0.3658674657344818, -0.03541214391589165, -0.1984090507030487, 0.31065791845321655, 0.033612482249736786, 0.5017678737640381, -0.10094033926725388, 0.03075561299920082, 0.3882490396499634, -0.21507443487644196, 0.10277459025382996, -0.3651997745037079, -0.06770160794258118, 0.09576737135648727, -0.019126445055007935], [0.42350831627845764, -0.0117409098893404, 0.06048202142119408, 0.052890338003635406, 0.0243851151317358, -0.16148142516613007, 0.056736934930086136, 0.06985200941562653, -0.44029220938682556, 0.1763719618320465, 0.10214509069919586, -0.1327054798603058, -0.29314619302749634, 0.5191870331764221, 0.05796743556857109, 0.3415210247039795, 0.024085894227027893, 0.14683687686920166, 0.38145187497138977, -0.05647789314389229, 0.11115224659442902, 0.4338858425617218, -0.050290796905756, 0.2385181188583374, 0.13815845549106598, 0.11289805918931961, 0.6090728640556335, 0.09833797812461853, -0.3624935448169708, 0.05044057220220566, 0.038201697170734406, -0.19313473999500275], [-0.7246316075325012, 0.5676770806312561, -0.2297629415988922, -0.10403330624103546, -0.023947592824697495, -0.07254421710968018, -0.272755891084671, 0.35686227679252625, -0.21039928495883942, -0.07949793338775635, -0.437822550535202, 0.18471987545490265, 0.2929125428199768, 0.0572262667119503, 0.18246757984161377, 0.000768587167840451, 0.477286696434021, 0.11245594173669815, 0.054791152477264404, -0.1411181390285492, -0.05146222561597824, -0.2330458164215088, -0.06814385950565338, 0.07769599556922913, 0.1633061319589615, -0.2738829553127289, 0.15173526108264923, 0.5466331839561462, -0.1713886260986328, -0.1733386516571045, -0.08524499833583832, -0.49881455302238464], [0.15147733688354492, -0.12917153537273407, -0.18028409779071808, -0.1708027422428131, -0.34973999857902527, -0.45719677209854126, -0.13485050201416016, -0.4386947751045227, -0.4392073154449463, -0.24045619368553162, -0.23154984414577484, 0.12155595421791077, 0.30164632201194763, 0.29222920536994934, -0.39788851141929626, 0.18746577203273773, -0.12706725299358368, -0.2207227498292923, 0.2550026774406433, 0.18586426973342896, 0.3102303147315979, 0.1619332879781723, -0.18335092067718506, 0.29789412021636963, -0.3496836721897125, 0.23797596991062164, 0.45836812257766724, -0.1637006551027298, 0.2507045269012451, -0.19501371681690216, -0.34738942980766296, 0.14035102725028992], [0.04663575068116188, -0.012957020662724972, -0.007264012470841408, 0.04770182818174362, -0.10315831005573273, -0.15477339923381805, -0.13909675180912018, 0.014914889819920063, -0.20641972124576569, -0.2067045420408249, -0.03382040560245514, 0.1589379459619522, -0.12278858572244644, 0.6688726544380188, 0.43588799238204956, 0.5644286274909973, 0.0778396800160408, 0.11672229319810867, 0.5906654000282288, -0.13847115635871887, 0.26341456174850464, 0.09787803143262863, 0.016862064599990845, 0.7167673110961914, -0.21821291744709015, 0.14779335260391235, 0.40399599075317383, 0.0781998559832573, 0.16901686787605286, 0.09407195448875427, 0.25173598527908325, 0.011539668776094913], [0.5201221704483032, 0.1581350415945053, 0.00591061357408762, 0.12718895077705383, 0.13978084921836853, 0.17267486453056335, -0.034739263355731964, 0.15601710975170135, 0.14529657363891602, -0.2719205617904663, 0.409232497215271, 0.10018439590930939, -0.11371903121471405, -0.08996032923460007, -0.288632333278656, -0.13670916855335236, 0.1850639432668686, -0.10458029061555862, -0.19095547497272491, 0.0906742662191391, -0.2812117338180542, 0.24537968635559082, -0.062353335320949554, -0.04861589893698692, 0.2945173680782318, -0.3976103961467743, -0.20739424228668213, 0.2131526917219162, 0.4034142792224884, 0.5270175337791443, 0.618058979511261, 0.07459446787834167]], "b": [-0.048233237117528915, 0.15995267033576965, 0.22326302528381348, 0.21978119015693665, -0.11386792361736298, -0.12962846457958221, 0.31410977244377136, 0.06253206729888916, -0.16272354125976562, -0.07436629384756088, 0.1749480813741684, -0.19086295366287231, 0.026012204587459564, 0.44432756304740906, 0.2862229645252228, 0.33408883213996887, 0.05770029500126839, 0.5147775411605835, 0.35835835337638855, -0.018855052068829536, 0.1338033229112625, 0.2673332989215851, 0.07592654973268509, 0.27099040150642395, 0.28550228476524353, 0.07006791234016418, 0.3038831949234009, 0.08628084510564804, -0.08145508915185928, 0.2591153383255005, 0.21054501831531525, -0.04229328781366348]}, {"name": "dense_13", "activation": "sigmoid", "w": [[-0.6331402063369751, 0.025898002088069916, -0.34655866026878357, -0.4628596305847168, 0.06058192625641823], [0.055904000997543335, -0.26098036766052246, -0.3754337430000305, 0.021944556385278702, 0.0009495080448687077], [-0.4099653661251068, -0.14333723485469818, 0.00965183973312378, -0.37141624093055725, -0.23241326212882996], [-0.3329344093799591, -0.134585902094841, -0.17564135789871216, -0.32152676582336426, -0.13806283473968506], [-0.05507095158100128, -0.7455557584762573, 0.05465475842356682, -0.0540522001683712, -0.07083147764205933], [0.05510542541742325, -0.8644759058952332, 0.05095873400568962, 0.033425237983465195, 0.014657262712717056], [-0.3399195373058319, -0.12247730046510696, 0.05798383802175522, -0.3062715530395508, -0.20051519572734833], [-0.0740649402141571, -0.27954772114753723, -0.2119448482990265, -0.10066183656454086, -0.10683572292327881], [-0.001020624884404242, -1.8892889022827148, 0.0663788765668869, 0.002845769515261054, -0.030984239652752876], [0.2510327100753784, -0.07249616831541061, -0.12199682742357254, 0.23732341825962067, 0.09332287311553955], [-0.4497199058532715, -0.26868048310279846, 0.10028388351202011, -0.28030166029930115, 0.04148546978831291], [0.4179724454879761, 0.16734488308429718, -0.5520315766334534, 0.32348066568374634, 0.2530145049095154], [0.22416646778583527, 0.1194525882601738, -0.7718119025230408, 0.10759945958852768, 0.04585645720362663], [-0.09480566531419754, 0.006660601124167442, -1.8669761419296265, -0.12858586013317108, -0.1446118801832199], [-0.15605387091636658, -0.076520174741745, -0.5179445147514343, -0.19231495261192322, -0.42732807993888855], [-0.15569165349006653, 0.0075570568442344666, -1.139792561531067, -0.1978013515472412, -0.30126726627349854], [0.09035179764032364, -0.3400956988334656, -0.49769309163093567, 0.03659985214471817, 0.034344688057899475], [-0.14364926517009735, -0.0895475223660469, -2.171302080154419, -0.2305057942867279, -0.23711428046226501], [-0.16337956488132477, 0.010074744001030922, -1.0481964349746704, -0.20025165379047394, -0.3142712414264679], [0.17188048362731934, 0.15821292996406555, 0.5313825011253357, 0.003922529052942991, 0.18901227414608002], [-0.27749377489089966, 0.019133739173412323, -0.10204577445983887, -0.2892187833786011, -0.5355597138404846], [-0.3600713908672333, -0.0021573237609118223, -0.4756756126880646, -0.3748665750026703, -0.04938271641731262], [-0.2138669639825821, -0.24714139103889465, 0.036565884947776794, -0.20562735199928284, -0.307809054851532], [-0.1453380137681961, 0.009934150613844395, -1.4423549175262451, -0.18617120385169983, -0.23472860455513], [-0.027976879850029945, -0.32539719343185425, -0.46590718626976013, -0.05712788179516792, 0.02644244022667408], [-0.3470723330974579, 0.03058205544948578, 0.07808785885572433, -0.3341420888900757, -0.6369394063949585], [-0.15410536527633667, 0.0130223473533988, -2.1248371601104736, -0.18826794624328613, -0.2734394967556], [0.0006876906263642013, -0.2672221064567566, -0.3876769542694092, -0.03603094816207886, -0.02650921605527401], [-0.059361815452575684, 0.11903627961874008, -0.4270634353160858, 0.14765504002571106, 0.263229101896286], [-0.3250582814216614, -0.13645130395889282, -0.3731667995452881, -0.2999587953090668, 0.026778198778629303], [-0.23792658746242523, -0.15150050818920135, -0.3191026747226715, -0.22433455288410187, 0.02195090986788273], [-0.14670532941818237, 0.16963325440883636, 0.32611462473869324, -0.045631714165210724, -0.17770487070083618]], "b": [-1.479304552078247, -1.429730772972107, -0.6680127382278442, -2.439311981201172, -2.274371385574341]}]}